<?xml version="1.0"?>
<opencv_storage>
<opencv_ml_svm>
  <format>3</format>
  <svmType>C_SVC</svmType>
  <kernel>
    <type>LINEAR</type></kernel>
  <C>1.</C>
  <term_criteria><iterations>1000</iterations></term_criteria>
  <var_count>1200</var_count>
  <class_count>2</class_count>
  <class_labels type_id="opencv-matrix">
    <rows>2</rows>
    <cols>1</cols>
    <dt>i</dt>
    <data>
      0 1</data></class_labels>
  <sv_total>1</sv_total>
  <support_vectors>
    <_>
      -1.17336128e-06 -1.17336128e-06 -1.17336128e-06 1.38937901e-06
      1.38937901e-06 1.38937901e-06 -2.33967125e-06 -2.33967125e-06
      -2.33967125e-06 5.33690354e-07 5.33690354e-07 5.33690354e-07
      -5.35151742e-07 -5.35151742e-07 -5.35151742e-07 4.59616473e-07
      4.59616473e-07 4.59616473e-07 -3.39337277e-07 -3.39337277e-07
      -3.39337277e-07 -1.99457730e-07 -1.99457730e-07 -1.99457730e-07
      8.41796407e-07 8.41796407e-07 8.41796407e-07 -1.69015448e-06
      -1.69015448e-06 -1.69015448e-06 -2.42850365e-06 -2.42850365e-06
      -2.42850365e-06 3.37524102e-06 3.37524102e-06 3.37524102e-06
      -1.48983884e-06 -1.48983884e-06 -1.48983884e-06 -3.24257326e-06
      -3.24257326e-06 -3.24257326e-06 2.87299622e-06 2.87299622e-06
      2.87299622e-06 -2.15844216e-06 -2.15844216e-06 -2.15844216e-06
      -8.23307360e-08 -8.23307360e-08 -8.23307360e-08 1.15645889e-06
      1.15645889e-06 1.15645889e-06 -1.72053092e-06 -1.72053092e-06
      -1.72053092e-06 2.17167027e-07 2.17167027e-07 2.17167027e-07
      -8.10014001e-07 -8.10014001e-07 -8.10014001e-07 3.76251705e-08
      3.76251705e-08 3.76251705e-08 1.60543607e-07 1.60543607e-07
      1.60543607e-07 1.53812891e-07 1.53812891e-07 1.53812891e-07
      5.48997093e-07 5.48997093e-07 5.48997093e-07 7.98797203e-07
      7.98797203e-07 7.98797203e-07 -8.88563648e-07 -8.88563648e-07
      -8.88563648e-07 -5.49437232e-07 -5.49437232e-07 -5.49437232e-07
      -3.62279138e-06 -3.62279138e-06 -3.62279138e-06 8.64164349e-07
      8.64164349e-07 8.64164349e-07 2.00485806e-06 2.00485806e-06
      2.00485806e-06 -7.59282102e-07 -7.59282102e-07 -7.59282102e-07
      -6.90899412e-07 -6.90899412e-07 -6.90899412e-07 3.87112323e-06
      3.87112323e-06 3.87112323e-06 6.63569377e-09 6.63569377e-09
      6.63569377e-09 2.68107760e-06 2.68107760e-06 2.68107760e-06
      2.48497287e-07 2.48497287e-07 2.48497287e-07 -3.96036995e-07
      -3.96036995e-07 -3.96036995e-07 1.08316090e-06 1.08316090e-06
      1.08316090e-06 -3.28241271e-07 -3.28241271e-07 -3.28241271e-07
      1.12417308e-06 1.12417308e-06 1.12417308e-06 1.12120269e-07
      1.12120269e-07 1.12120269e-07 -1.64060236e-06 -1.64060236e-06
      -1.64060236e-06 7.41383076e-07 7.41383076e-07 7.41383076e-07
      -1.46792797e-06 -1.46792797e-06 -1.46792797e-06 -1.51201891e-06
      -1.51201891e-06 -1.51201891e-06 2.38746884e-06 2.38746884e-06
      2.38746884e-06 -4.07183109e-07 -4.07183109e-07 -4.07183109e-07
      -5.92180186e-06 -5.92180186e-06 -5.92180186e-06 -1.93402066e-05
      -1.93402066e-05 -1.93402066e-05 -4.79125956e-05 -4.79125956e-05
      -4.79125956e-05 -8.99827646e-05 -8.99827646e-05 -8.99827646e-05
      -2.35143434e-05 -2.35143434e-05 -2.35143434e-05 3.88553090e-05
      3.88553090e-05 3.88553090e-05 6.60600926e-06 6.60600926e-06
      6.60600926e-06 -1.39358690e-07 -1.39358690e-07 -1.39358690e-07
      1.45105844e-06 1.45105844e-06 1.45105844e-06 4.96806535e-07
      4.96806535e-07 4.96806535e-07 -6.63560741e-07 -6.63560741e-07
      -6.63560741e-07 3.97837084e-07 3.97837084e-07 3.97837084e-07
      -7.36698041e-07 -7.36698041e-07 -7.36698041e-07 -3.95808030e-07
      -3.95808030e-07 -3.95808030e-07 1.63230777e-06 1.63230777e-06
      1.63230777e-06 -1.60322244e-07 -1.60322244e-07 -1.60322244e-07
      4.42309698e-07 4.42309698e-07 4.42309698e-07 -1.91557615e-06
      -1.91557615e-06 -1.91557615e-06 -6.68323173e-06 -6.68323173e-06
      -6.68323173e-06 -1.45453751e-05 -1.45453751e-05 -1.45453751e-05
      -1.58883449e-05 -1.58883449e-05 -1.58883449e-05 4.65288213e-05
      4.65288213e-05 4.65288213e-05 2.05261487e-04 2.05261487e-04
      2.05261487e-04 5.42665439e-05 5.42665439e-05 5.42665439e-05
      -1.71079919e-05 -1.71079919e-05 -1.71079919e-05 -1.87254573e-05
      -1.87254573e-05 -1.87254573e-05 1.20331356e-06 1.20331356e-06
      1.20331356e-06 1.01869646e-05 1.01869646e-05 1.01869646e-05
      -4.19449634e-07 -4.19449634e-07 -4.19449634e-07 3.72561459e-07
      3.72561459e-07 3.72561459e-07 6.23204315e-08 6.23204315e-08
      6.23204315e-08 2.21688822e-07 2.21688822e-07 2.21688822e-07
      -3.05589793e-08 -3.05589793e-08 -3.05589793e-08 1.29916813e-07
      1.29916813e-07 1.29916813e-07 -3.22935620e-07 -3.22935620e-07
      -3.22935620e-07 1.56446458e-06 1.56446458e-06 1.56446458e-06
      1.43915906e-06 1.43915906e-06 1.43915906e-06 -1.55145187e-06
      -1.55145187e-06 -1.55145187e-06 -9.17823400e-06 -9.17823400e-06
      -9.17823400e-06 1.49891166e-05 1.49891166e-05 1.49891166e-05
      6.89133885e-05 6.89133885e-05 6.89133885e-05 6.78002907e-05
      6.78002907e-05 6.78002907e-05 1.07045598e-04 1.07045598e-04
      1.07045598e-04 3.88653061e-05 3.88653061e-05 3.88653061e-05
      9.95200171e-05 9.95200171e-05 9.95200171e-05 -1.22027937e-04
      -1.22027937e-04 -1.22027937e-04 -2.44666826e-05 -2.44666826e-05
      -2.44666826e-05 3.31466913e-06 3.31466913e-06 3.31466913e-06
      -1.21232115e-05 -1.21232115e-05 -1.21232115e-05 9.02867782e-07
      9.02867782e-07 9.02867782e-07 -1.48660277e-07 -1.48660277e-07
      -1.48660277e-07 1.43653551e-06 1.43653551e-06 1.43653551e-06
      -1.06642483e-06 -1.06642483e-06 -1.06642483e-06 6.58057857e-08
      6.58057857e-08 6.58057857e-08 -2.98299966e-07 -2.98299966e-07
      -2.98299966e-07 -1.16280239e-06 -1.16280239e-06 -1.16280239e-06
      -1.51264285e-05 -1.51264285e-05 -1.51264285e-05 -4.52450004e-05
      -4.52450004e-05 -4.52450004e-05 5.56328359e-06 5.56328359e-06
      5.56328359e-06 7.37041628e-05 7.37041628e-05 7.37041628e-05
      2.99477651e-05 2.99477651e-05 2.99477651e-05 -5.82139637e-06
      -5.82139637e-06 -5.82139637e-06 9.20333696e-06 9.20333696e-06
      9.20333696e-06 -6.63116080e-05 -6.63116080e-05 -6.63116080e-05
      7.38259987e-05 7.38259987e-05 7.38259987e-05 -6.89798253e-05
      -6.89798253e-05 -6.89798253e-05 -7.54012945e-05 -7.54012945e-05
      -7.54012945e-05 -2.68435797e-05 -2.68435797e-05 -2.68435797e-05
      1.06745811e-05 1.06745811e-05 1.06745811e-05 8.85458405e-07
      8.85458405e-07 8.85458405e-07 3.58671173e-07 3.58671173e-07
      3.58671173e-07 -7.70703146e-09 -7.70703146e-09 -7.70703146e-09
      -2.41065266e-07 -2.41065266e-07 -2.41065266e-07 7.03139619e-07
      7.03139619e-07 7.03139619e-07 1.59795013e-06 1.59795013e-06
      1.59795013e-06 -5.49892320e-07 -5.49892320e-07 -5.49892320e-07
      -3.66025015e-05 -3.66025015e-05 -3.66025015e-05 -8.50037977e-05
      -8.50037977e-05 -8.50037977e-05 1.73567969e-05 1.73567969e-05
      1.73567969e-05 6.87835272e-05 6.87835272e-05 6.87835272e-05
      -6.21978907e-05 -6.21978907e-05 -6.21978907e-05 -9.39055462e-05
      -9.39055462e-05 -9.39055462e-05 7.48632447e-05 7.48632447e-05
      7.48632447e-05 -8.17509044e-06 -8.17509044e-06 -8.17509044e-06
      3.80906422e-05 3.80906422e-05 3.80906422e-05 1.64953635e-05
      1.64953635e-05 1.64953635e-05 1.42763138e-05 1.42763138e-05
      1.42763138e-05 1.05490166e-04 1.05490166e-04 1.05490166e-04
      7.05343919e-05 7.05343919e-05 7.05343919e-05 2.23500069e-06
      2.23500069e-06 2.23500069e-06 1.20318623e-06 1.20318623e-06
      1.20318623e-06 -1.06559995e-07 -1.06559995e-07 -1.06559995e-07
      6.57337409e-07 6.57337409e-07 6.57337409e-07 -2.12053621e-07
      -2.12053621e-07 -2.12053621e-07 -3.20392559e-07 -3.20392559e-07
      -3.20392559e-07 3.98259886e-07 3.98259886e-07 3.98259886e-07
      -3.43374704e-05 -3.43374704e-05 -3.43374704e-05 -2.29761408e-05
      -2.29761408e-05 -2.29761408e-05 6.94346309e-05 6.94346309e-05
      6.94346309e-05 4.19521211e-06 4.19521211e-06 4.19521211e-06
      -8.61107110e-05 -8.61107110e-05 -8.61107110e-05 6.89074295e-05
      6.89074295e-05 6.89074295e-05 8.47587125e-06 8.47587125e-06
      8.47587125e-06 -8.42040754e-05 -8.42040754e-05 -8.42040754e-05
      -2.74569593e-05 -2.74569593e-05 -2.74569593e-05 7.64000220e-07
      7.64000220e-07 7.64000220e-07 1.52836772e-04 1.52836772e-04
      1.52836772e-04 1.53651345e-04 1.53651345e-04 1.53651345e-04
      1.42145014e-04 1.42145014e-04 1.42145014e-04 2.84529160e-05
      2.84529160e-05 2.84529160e-05 -2.49748246e-05 -2.49748246e-05
      -2.49748246e-05 -2.19097771e-07 -2.19097771e-07 -2.19097771e-07
      -1.86590370e-07 -1.86590370e-07 -1.86590370e-07 3.88214949e-06
      3.88214949e-06 3.88214949e-06 -2.61420746e-06 -2.61420746e-06
      -2.61420746e-06 1.66441587e-05 1.66441587e-05 1.66441587e-05
      1.61874177e-05 1.61874177e-05 1.61874177e-05 -5.40312576e-05
      -5.40312576e-05 -5.40312576e-05 -4.32096713e-05 -4.32096713e-05
      -4.32096713e-05 -1.56233305e-04 -1.56233305e-04 -1.56233305e-04
      4.17530282e-05 4.17530282e-05 4.17530282e-05 5.51055382e-05
      5.51055382e-05 5.51055382e-05 -9.85829829e-05 -9.85829829e-05
      -9.85829829e-05 -1.63962613e-04 -1.63962613e-04 -1.63962613e-04
      -2.27250966e-05 -2.27250966e-05 -2.27250966e-05 8.95457415e-05
      8.95457415e-05 8.95457415e-05 2.10910614e-04 2.10910614e-04
      2.10910614e-04 9.84861472e-05 9.84861472e-05 9.84861472e-05
      1.17801384e-04 1.17801384e-04 1.17801384e-04 8.32084916e-05
      8.32084916e-05 8.32084916e-05 -1.86056241e-05 -1.86056241e-05
      -1.86056241e-05 -1.48231300e-06 -1.48231300e-06 -1.48231300e-06
      -2.25835606e-06 -2.25835606e-06 -2.25835606e-06 4.09194490e-06
      4.09194490e-06 4.09194490e-06 4.89122567e-06 4.89122567e-06
      4.89122567e-06 3.97634321e-05 3.97634321e-05 3.97634321e-05
      6.64805557e-05 6.64805557e-05 6.64805557e-05 -6.65442167e-06
      -6.65442167e-06 -6.65442167e-06 2.45836909e-05 2.45836909e-05
      2.45836909e-05 9.89235559e-05 9.89235559e-05 9.89235559e-05
      1.99552276e-04 1.99552276e-04 1.99552276e-04 -1.11631387e-04
      -1.11631387e-04 -1.11631387e-04 -3.54786403e-04 -3.54786403e-04
      -3.54786403e-04 -1.92925581e-04 -1.92925581e-04 -1.92925581e-04
      -3.08184426e-05 -3.08184426e-05 -3.08184426e-05 2.54773295e-05
      2.54773295e-05 2.54773295e-05 1.92507126e-04 1.92507126e-04
      1.92507126e-04 9.61439364e-05 9.61439364e-05 9.61439364e-05
      1.01439684e-04 1.01439684e-04 1.01439684e-04 1.15576499e-04
      1.15576499e-04 1.15576499e-04 -1.31789000e-06 -1.31789000e-06
      -1.31789000e-06 -5.46644571e-07 -5.46644571e-07 -5.46644571e-07
      1.25232543e-06 1.25232543e-06 1.25232543e-06 -1.40605664e-06
      -1.40605664e-06 -1.40605664e-06 1.60295514e-07 1.60295514e-07
      1.60295514e-07 6.22536245e-05 6.22536245e-05 6.22536245e-05
      1.38609248e-04 1.38609248e-04 1.38609248e-04 1.39486801e-04
      1.39486801e-04 1.39486801e-04 3.04600562e-05 3.04600562e-05
      3.04600562e-05 2.94197642e-04 2.94197642e-04 2.94197642e-04
      1.25116378e-04 1.25116378e-04 1.25116378e-04 -1.75928493e-04
      -1.75928493e-04 -1.75928493e-04 -4.46728111e-04 -4.46728111e-04
      -4.46728111e-04 -1.17709395e-04 -1.17709395e-04 -1.17709395e-04
      8.80098014e-05 8.80098014e-05 8.80098014e-05 4.22687008e-05
      4.22687008e-05 4.22687008e-05 1.64434066e-04 1.64434066e-04
      1.64434066e-04 6.00927779e-05 6.00927779e-05 6.00927779e-05
      1.16269795e-04 1.16269795e-04 1.16269795e-04 1.08698521e-04
      1.08698521e-04 1.08698521e-04 -5.16660657e-06 -5.16660657e-06
      -5.16660657e-06 -1.97852546e-06 -1.97852546e-06 -1.97852546e-06
      5.91012849e-06 5.91012849e-06 5.91012849e-06 8.79409129e-07
      8.79409129e-07 8.79409129e-07 5.34479113e-06 5.34479113e-06
      5.34479113e-06 6.37372432e-05 6.37372432e-05 6.37372432e-05
      1.46199018e-04 1.46199018e-04 1.46199018e-04 1.29339911e-04
      1.29339911e-04 1.29339911e-04 1.41216660e-04 1.41216660e-04
      1.41216660e-04 3.02889996e-04 3.02889996e-04 3.02889996e-04
      6.64082472e-05 6.64082472e-05 6.64082472e-05 -3.02558939e-04
      -3.02558939e-04 -3.02558939e-04 -3.56676086e-04 -3.56676086e-04
      -3.56676086e-04 -1.18466496e-05 -1.18466496e-05 -1.18466496e-05
      1.10402259e-04 1.10402259e-04 1.10402259e-04 2.81361213e-06
      2.81361213e-06 2.81361213e-06 1.50942360e-04 1.50942360e-04
      1.50942360e-04 1.11755253e-04 1.11755253e-04 1.11755253e-04
      1.50234046e-04 1.50234046e-04 1.50234046e-04 7.72678468e-05
      7.72678468e-05 7.72678468e-05 -3.23077143e-06 -3.23077143e-06
      -3.23077143e-06 2.37073465e-07 2.37073465e-07 2.37073465e-07
      -1.87363105e-06 -1.87363105e-06 -1.87363105e-06 -1.33406445e-06
      -1.33406445e-06 -1.33406445e-06 -1.91387562e-06 -1.91387562e-06
      -1.91387562e-06 5.25155010e-05 5.25155010e-05 5.25155010e-05
      1.06516076e-04 1.06516076e-04 1.06516076e-04 1.34450820e-04
      1.34450820e-04 1.34450820e-04 5.94968333e-05 5.94968333e-05
      5.94968333e-05 2.60912871e-04 2.60912871e-04 2.60912871e-04
      7.89214027e-05 7.89214027e-05 7.89214027e-05 -1.87394762e-04
      -1.87394762e-04 -1.87394762e-04 -7.33759880e-05 -7.33759880e-05
      -7.33759880e-05 9.26413995e-05 9.26413995e-05 9.26413995e-05
      2.32497841e-04 2.32497841e-04 2.32497841e-04 1.00211444e-04
      1.00211444e-04 1.00211444e-04 1.25074483e-04 1.25074483e-04
      1.25074483e-04 1.72237109e-04 1.72237109e-04 1.72237109e-04
      1.27729028e-04 1.27729028e-04 1.27729028e-04 2.84328726e-05
      2.84328726e-05 2.84328726e-05 7.20118635e-07 7.20118635e-07
      7.20118635e-07 8.98278131e-07 8.98278131e-07 8.98278131e-07
      -6.10439770e-07 -6.10439770e-07 -6.10439770e-07 8.22688889e-06
      8.22688889e-06 8.22688889e-06 -1.46476896e-06 -1.46476896e-06
      -1.46476896e-06 3.82648395e-05 3.82648395e-05 3.82648395e-05
      1.01862664e-04 1.01862664e-04 1.01862664e-04 1.69027815e-04
      1.69027815e-04 1.69027815e-04 2.34734634e-05 2.34734634e-05
      2.34734634e-05 8.49190037e-05 8.49190037e-05 8.49190037e-05
      9.22884428e-05 9.22884428e-05 9.22884428e-05 -2.83828296e-04
      -2.83828296e-04 -2.83828296e-04 -1.18787299e-04 -1.18787299e-04
      -1.18787299e-04 1.78884060e-04 1.78884060e-04 1.78884060e-04
      1.66457583e-04 1.66457583e-04 1.66457583e-04 3.53375399e-05
      3.53375399e-05 3.53375399e-05 -3.09298739e-05 -3.09298739e-05
      -3.09298739e-05 7.11018802e-05 7.11018802e-05 7.11018802e-05
      2.99168696e-05 2.99168696e-05 2.99168696e-05 -1.50744791e-05
      -1.50744791e-05 -1.50744791e-05 -3.32863578e-07 -3.32863578e-07
      -3.32863578e-07 -1.63176935e-06 -1.63176935e-06 -1.63176935e-06
      -2.09901464e-06 -2.09901464e-06 -2.09901464e-06 -1.84617204e-06
      -1.84617204e-06 -1.84617204e-06 1.88755655e-06 1.88755655e-06
      1.88755655e-06 2.72421748e-05 2.72421748e-05 2.72421748e-05
      2.54156403e-05 2.54156403e-05 2.54156403e-05 1.25896011e-04
      1.25896011e-04 1.25896011e-04 -4.27845662e-05 -4.27845662e-05
      -4.27845662e-05 4.71545318e-05 4.71545318e-05 4.71545318e-05
      1.00925397e-04 1.00925397e-04 1.00925397e-04 -1.56939757e-04
      -1.56939757e-04 -1.56939757e-04 -1.73276916e-04 -1.73276916e-04
      -1.73276916e-04 1.21886427e-04 1.21886427e-04 1.21886427e-04
      -3.49183392e-05 -3.49183392e-05 -3.49183392e-05 -1.06983302e-04
      -1.06983302e-04 -1.06983302e-04 -9.20738021e-05 -9.20738021e-05
      -9.20738021e-05 -4.33300411e-05 -4.33300411e-05 -4.33300411e-05
      -1.05164800e-04 -1.05164800e-04 -1.05164800e-04 -1.01138343e-04
      -1.01138343e-04 -1.01138343e-04 -1.17724576e-05 -1.17724576e-05
      -1.17724576e-05 1.58985858e-06 1.58985858e-06 1.58985858e-06
      -1.24691110e-06 -1.24691110e-06 -1.24691110e-06 -7.98720805e-07
      -7.98720805e-07 -7.98720805e-07 1.82562587e-06 1.82562587e-06
      1.82562587e-06 2.19020021e-05 2.19020021e-05 2.19020021e-05
      1.63366858e-05 1.63366858e-05 1.63366858e-05 -1.51231752e-05
      -1.51231752e-05 -1.51231752e-05 -7.25377904e-05 -7.25377904e-05
      -7.25377904e-05 1.34642454e-04 1.34642454e-04 1.34642454e-04
      1.20201308e-04 1.20201308e-04 1.20201308e-04 6.66875421e-05
      6.66875421e-05 6.66875421e-05 4.84509437e-05 4.84509437e-05
      4.84509437e-05 5.75307313e-05 5.75307313e-05 5.75307313e-05
      -7.97533867e-05 -7.97533867e-05 -7.97533867e-05 -4.40798685e-05
      -4.40798685e-05 -4.40798685e-05 -1.88424419e-05 -1.88424419e-05
      -1.88424419e-05 -4.68024773e-05 -4.68024773e-05 -4.68024773e-05
      -9.34816781e-05 -9.34816781e-05 -9.34816781e-05 -1.03330596e-04
      -1.03330596e-04 -1.03330596e-04 -5.27360426e-05 -5.27360426e-05
      -5.27360426e-05 -1.71528161e-08 -1.71528161e-08 -1.71528161e-08
      1.33246246e-07 1.33246246e-07 1.33246246e-07 -1.29713067e-06
      -1.29713067e-06 -1.29713067e-06 1.81823054e-06 1.81823054e-06
      1.81823054e-06 2.01615931e-05 2.01615931e-05 2.01615931e-05
      6.18199847e-05 6.18199847e-05 6.18199847e-05 -1.24131202e-05
      -1.24131202e-05 -1.24131202e-05 -4.43713270e-06 -4.43713270e-06
      -4.43713270e-06 1.32068802e-04 1.32068802e-04 1.32068802e-04
      1.27804204e-04 1.27804204e-04 1.27804204e-04 2.25299053e-04
      2.25299053e-04 2.25299053e-04 1.95319793e-04 1.95319793e-04
      1.95319793e-04 6.05501009e-06 6.05501009e-06 6.05501009e-06
      -7.85858647e-05 -7.85858647e-05 -7.85858647e-05 4.73303044e-05
      4.73303044e-05 4.73303044e-05 3.77475917e-05 3.77475917e-05
      3.77475917e-05 -1.03512693e-05 -1.03512693e-05 -1.03512693e-05
      -2.11437273e-05 -2.11437273e-05 -2.11437273e-05 -2.19894755e-05
      -2.19894755e-05 -2.19894755e-05 -1.26862360e-05 -1.26862360e-05
      -1.26862360e-05 -1.26862358e-06 -1.26862358e-06 -1.26862358e-06
      -6.79548521e-07 -6.79548521e-07 -6.79548521e-07 9.19908052e-06
      9.19908052e-06 9.19908052e-06 -2.01512293e-07 -2.01512293e-07
      -2.01512293e-07 2.96770177e-05 2.96770177e-05 2.96770177e-05
      6.22578664e-05 6.22578664e-05 6.22578664e-05 4.72087340e-05
      4.72087340e-05 4.72087340e-05 4.27721898e-05 4.27721898e-05
      4.27721898e-05 6.74426847e-05 6.74426847e-05 6.74426847e-05
      4.90861130e-05 4.90861130e-05 4.90861130e-05 7.42910706e-05
      7.42910706e-05 7.42910706e-05 9.76437950e-05 9.76437950e-05
      9.76437950e-05 3.71240021e-05 3.71240021e-05 3.71240021e-05
      -5.46256924e-05 -5.46256924e-05 -5.46256924e-05 1.67050130e-05
      1.67050130e-05 1.67050130e-05 1.32380592e-07 1.32380592e-07
      1.32380592e-07 7.10744234e-06 7.10744234e-06 7.10744234e-06 0. 0.
      0. -8.45749071e-07 -8.45749071e-07 -8.45749071e-07 0. 0. 0. 0. 0.
      0. 1.70307328e-06 1.70307328e-06 1.70307328e-06 -4.37815430e-07
      -4.37815430e-07 -4.37815430e-07 -9.79317747e-07 -9.79317747e-07
      -9.79317747e-07 7.66546520e-07 7.66546520e-07 7.66546520e-07
      3.18842353e-06 3.18842353e-06 3.18842353e-06 2.94217284e-06
      2.94217284e-06 2.94217284e-06 4.97159044e-06 4.97159044e-06
      4.97159044e-06 -5.80010294e-07 -5.80010294e-07 -5.80010294e-07
      -2.84652879e-06 -2.84652879e-06 -2.84652879e-06 -9.21289086e-07
      -9.21289086e-07 -9.21289086e-07 1.18628554e-06 1.18628554e-06
      1.18628554e-06 -1.11573804e-07 -1.11573804e-07 -1.11573804e-07
      4.45101978e-06 4.45101978e-06 4.45101978e-06 1.84798375e-06
      1.84798375e-06 1.84798375e-06 -2.16816417e-07 -2.16816417e-07
      -2.16816417e-07 -1.79924484e-06 -1.79924484e-06 -1.79924484e-06
      -8.45749071e-07 -8.45749071e-07 -8.45749071e-07 -8.45749071e-07
      -8.45749071e-07 -8.45749071e-07 0. 0. 0. -4.22874535e-07
      -4.22874535e-07 -4.22874535e-07 -2.19980720e-07 -2.19980720e-07
      -2.19980720e-07 -2.10757094e-06 -2.10757094e-06 -2.10757094e-06
      8.21488356e-06 8.21488356e-06 8.21488356e-06 -2.12374530e-07
      -2.12374530e-07 -2.12374530e-07 -1.17563093e-06 -1.17563093e-06
      -1.17563093e-06 -7.28919701e-07 -7.28919701e-07 -7.28919701e-07
      1.14762258e-06 1.14762258e-06 1.14762258e-06 5.97722328e-06
      5.97722328e-06 5.97722328e-06 -3.97937015e-07 -3.97937015e-07
      -3.97937015e-07 6.16396335e-07 6.16396335e-07 6.16396335e-07
      3.16948194e-06 3.16948194e-06 3.16948194e-06 -1.28431179e-06
      -1.28431179e-06 -1.28431179e-06 -2.37740460e-06 -2.37740460e-06
      -2.37740460e-06 -2.19028038e-06 -2.19028038e-06 -2.19028038e-06
      3.18064804e-06 3.18064804e-06 3.18064804e-06 -6.78820868e-07
      -6.78820868e-07 -6.78820868e-07 0. 0. 0. 0. 0. 0. 0. 0. 0. 0. 0.
      0.</_></support_vectors>
  <uncompressed_sv_total>30</uncompressed_sv_total>
  <uncompressed_support_vectors>
    <_>
      0. 0. 0. 0. 0. 0. 0. 0. 0. 0. 0. 0. 0. 0. 0. 0. 0. 0. 0. 0. 0. 0.
      0. 0. 1. 1. 1. 0. 0. 0. 2. 2. 2. 0. 0. 0. 1. 1. 1. 1. 1. 1. 0. 0.
      0. 0. 0. 0. 0. 0. 0. 0. 0. 0. 0. 0. 0. 0. 0. 0. 0. 0. 0. 0. 0. 0.
      0. 0. 0. 0. 0. 0. 0. 0. 0. 0. 0. 0. 0. 0. 0. 0. 0. 0. 0. 0. 0. 0.
      0. 0. 1. 1. 1. 0. 0. 0. 0. 0. 0. 0. 0. 0. 3. 3. 3. 0. 0. 0. 0. 0.
      0. 0. 0. 0. 0. 0. 0. 0. 0. 0. 0. 0. 0. 0. 0. 0. 0. 0. 0. 0. 0. 0.
      0. 0. 0. 0. 0. 0. 0. 0. 0. 0. 0. 0. 1. 1. 1. 1. 1. 1. 22. 22. 22.
      11. 11. 11. 7. 7. 7. 0. 0. 0. 0. 0. 0. 1. 1. 1. 0. 0. 0. 0. 0. 0.
      0. 0. 0. 0. 0. 0. 0. 0. 0. 0. 0. 0. 0. 0. 0. 0. 0. 0. 0. 0. 0. 0.
      0. 0. 0. 0. 0. 0. 0. 0. 0. 0. 0. 10. 10. 10. 199. 199. 199. 71.
      71. 71. 0. 0. 0. 1. 1. 1. 3. 3. 3. 0. 0. 0. 0. 0. 0. 0. 0. 0. 0.
      0. 0. 0. 0. 0. 0. 0. 0. 0. 0. 0. 0. 0. 0. 0. 0. 0. 0. 0. 0. 0. 0.
      0. 0. 0. 0. 0. 0. 0. 1. 1. 1. 14. 14. 14. 223. 223. 223. 60. 60.
      60. 4. 4. 4. 0. 0. 0. 3. 3. 3. 0. 0. 0. 0. 0. 0. 0. 0. 0. 0. 0. 0.
      0. 0. 0. 0. 0. 0. 0. 0. 0. 0. 0. 0. 0. 0. 0. 0. 0. 0. 0. 0. 0. 0.
      0. 0. 0. 0. 0. 0. 0. 0. 14. 14. 14. 216. 216. 216. 61. 61. 61. 0.
      0. 0. 0. 0. 0. 0. 0. 0. 0. 0. 0. 0. 0. 0. 0. 0. 0. 0. 0. 0. 0. 0.
      0. 0. 0. 0. 0. 0. 0. 0. 0. 0. 0. 0. 0. 0. 0. 0. 0. 0. 0. 0. 0. 0.
      0. 0. 0. 2. 2. 2. 9. 9. 9. 221. 221. 221. 61. 61. 61. 0. 0. 0. 2.
      2. 2. 1. 1. 1. 1. 1. 1. 0. 0. 0. 0. 0. 0. 0. 0. 0. 0. 0. 0. 0. 0.
      0. 0. 0. 0. 0. 0. 0. 0. 0. 0. 0. 0. 0. 0. 0. 0. 0. 0. 0. 0. 0. 0.
      0. 0. 0. 25. 25. 25. 216. 216. 216. 53. 53. 53. 0. 0. 0. 1. 1. 1.
      0. 0. 0. 0. 0. 0. 0. 0. 0. 0. 0. 0. 0. 0. 0. 0. 0. 0. 0. 0. 0. 0.
      0. 0. 0. 0. 0. 0. 0. 0. 0. 0. 0. 0. 0. 0. 0. 0. 0. 0. 0. 0. 0. 0.
      0. 83. 83. 83. 203. 203. 203. 16. 16. 16. 1. 1. 1. 1. 1. 1. 0. 0.
      0. 2. 2. 2. 0. 0. 0. 0. 0. 0. 0. 0. 0. 0. 0. 0. 0. 0. 0. 0. 0. 0.
      0. 0. 0. 0. 0. 0. 0. 0. 0. 0. 0. 0. 0. 0. 0. 0. 0. 0. 2. 2. 2. 70.
      70. 70. 221. 221. 221. 54. 54. 54. 1. 1. 1. 2. 2. 2. 0. 0. 0. 0.
      0. 0. 0. 0. 0. 0. 0. 0. 0. 0. 0. 0. 0. 0. 0. 0. 0. 0. 0. 0. 0. 0.
      0. 0. 0. 0. 0. 0. 0. 0. 0. 0. 0. 0. 0. 0. 0. 0. 0. 0. 0. 14. 14.
      14. 221. 221. 221. 62. 62. 62. 0. 0. 0. 0. 0. 0. 0. 0. 0. 3. 3. 3.
      0. 0. 0. 0. 0. 0. 0. 0. 0. 0. 0. 0. 0. 0. 0. 0. 0. 0. 0. 0. 0. 0.
      0. 0. 0. 0. 0. 0. 0. 0. 0. 0. 0. 0. 0. 0. 0. 0. 0. 16. 16. 16.
      219. 219. 219. 60. 60. 60. 0. 0. 0. 1. 1. 1. 0. 0. 0. 0. 0. 0. 0.
      0. 0. 0. 0. 0. 0. 0. 0. 0. 0. 0. 0. 0. 0. 0. 0. 0. 0. 0. 0. 0. 0.
      0. 0. 0. 0. 0. 0. 0. 0. 0. 0. 0. 0. 0. 4. 4. 4. 1. 1. 1. 205. 205.
      205. 105. 105. 105. 1. 1. 1. 0. 0. 0. 3. 3. 3. 3. 3. 3. 0. 0. 0.
      0. 0. 0. 0. 0. 0. 0. 0. 0. 0. 0. 0. 0. 0. 0. 0. 0. 0. 0. 0. 0. 0.
      0. 0. 0. 0. 0. 0. 0. 0. 0. 0. 0. 0. 0. 0. 2. 2. 2. 183. 183. 183.
      154. 154. 154. 3. 3. 3. 0. 0. 0. 0. 0. 0. 0. 0. 0. 0. 0. 0. 0. 0.
      0. 0. 0. 0. 0. 0. 0. 0. 0. 0. 0. 0. 0. 0. 0. 0. 0. 0. 0. 0. 0. 0.
      0. 0. 0. 0. 0. 0. 0. 0. 0. 0. 0. 0. 6. 6. 6. 179. 179. 179. 168.
      168. 168. 3. 3. 3. 0. 0. 0. 5. 5. 5. 1. 1. 1. 0. 0. 0. 0. 0. 0. 0.
      0. 0. 0. 0. 0. 0. 0. 0. 0. 0. 0. 0. 0. 0. 0. 0. 0. 0. 0. 0. 0. 0.
      0. 0. 0. 0. 0. 0. 0. 2. 2. 2. 5. 5. 5. 234. 234. 234. 103. 103.
      103. 0. 0. 0. 0. 0. 0. 0. 0. 0. 0. 0. 0. 0. 0. 0. 0. 0. 0. 0. 0.
      0. 0. 0. 0. 0. 0. 0. 0. 0. 0. 0. 0. 0. 0. 0. 0. 0. 0. 0. 0. 0. 0.
      0. 0. 0. 0. 0. 0. 0. 0. 0. 14. 14. 14. 232. 232. 232. 69. 69. 69.
      0. 0. 0. 2. 2. 2. 0. 0. 0. 0. 0. 0. 0. 0. 0. 0. 0. 0. 0. 0. 0. 0.
      0. 0. 0. 0. 0. 0. 0. 0. 0. 0. 0. 0. 0. 0. 0. 0. 0. 0. 0. 0. 0. 0.
      0. 0. 0. 0. 0. 0. 0. 2. 2. 2. 26. 26. 26. 8. 8. 8. 4. 4. 4. 0. 0.
      0. 2. 2. 2. 0. 0. 0. 0. 0. 0. 0. 0. 0. 0. 0. 0. 0. 0. 0. 0. 0. 0.
      0. 0. 0. 0. 0. 0. 0. 0. 0. 0. 0. 0. 0. 0. 0. 0. 0. 0. 0. 0. 0. 4.
      4. 4. 0. 0. 0. 1. 1. 1. 0. 0. 0. 0. 0. 0. 0. 0. 0. 0. 0. 0. 2. 2.
      2. 0. 0. 0. 0. 0. 0. 0. 0. 0. 0. 0. 0. 0. 0. 0. 0. 0. 0. 0. 0. 0.
      0. 0. 0. 0. 0. 0. 0. 0. 0. 0. 0. 0. 0. 0. 0. 0. 0. 0. 0. 0. 0. 1.
      1. 1. 0. 0. 0. 1. 1. 1. 3. 3. 3. 0. 0. 0. 0. 0. 0. 0. 0. 0. 0. 0.
      0. 0. 0. 0. 0. 0. 0.</_>
    <_>
      0. 0. 0. 0. 0. 0. 0. 0. 0. 0. 0. 0. 0. 0. 0. 0. 0. 0. 0. 0. 0. 0.
      0. 0. 1. 1. 1. 0. 0. 0. 3. 3. 3. 0. 0. 0. 2. 2. 2. 0. 0. 0. 0. 0.
      0. 1. 1. 1. 0. 0. 0. 0. 0. 0. 0. 0. 0. 0. 0. 0. 0. 0. 0. 0. 0. 0.
      0. 0. 0. 0. 0. 0. 0. 0. 0. 0. 0. 0. 0. 0. 0. 0. 0. 0. 0. 0. 0. 0.
      0. 0. 0. 0. 0. 1. 1. 1. 2. 2. 2. 0. 0. 0. 0. 0. 0. 0. 0. 0. 0. 0.
      0. 0. 0. 0. 0. 0. 0. 0. 0. 0. 0. 0. 0. 0. 0. 0. 0. 0. 0. 0. 0. 0.
      0. 0. 0. 0. 0. 0. 0. 0. 0. 0. 0. 0. 4. 4. 4. 0. 0. 0. 0. 0. 0. 0.
      0. 0. 0. 0. 0. 0. 0. 0. 0. 0. 0. 2. 2. 2. 0. 0. 0. 0. 0. 0. 0. 0.
      0. 0. 0. 0. 0. 0. 0. 0. 0. 0. 0. 0. 0. 0. 0. 0. 0. 0. 0. 0. 0. 0.
      0. 0. 0. 0. 0. 0. 0. 0. 0. 3. 3. 3. 0. 0. 0. 0. 0. 0. 0. 0. 0. 64.
      64. 64. 32. 32. 32. 0. 0. 0. 0. 0. 0. 0. 0. 0. 0. 0. 0. 0. 0. 0.
      0. 0. 0. 0. 0. 0. 0. 0. 0. 0. 0. 0. 0. 0. 0. 0. 0. 0. 0. 0. 0. 0.
      0. 0. 3. 3. 3. 1. 1. 1. 2. 2. 2. 3. 3. 3. 92. 92. 92. 240. 240.
      240. 101. 101. 101. 2. 2. 2. 0. 0. 0. 0. 0. 0. 0. 0. 0. 0. 0. 0.
      0. 0. 0. 0. 0. 0. 0. 0. 0. 0. 0. 0. 0. 0. 0. 0. 0. 0. 0. 0. 0. 0.
      0. 0. 0. 0. 0. 0. 0. 0. 0. 0. 0. 47. 47. 47. 227. 227. 227. 241.
      241. 241. 50. 50. 50. 0. 0. 0. 0. 0. 0. 0. 0. 0. 0. 0. 0. 0. 0. 0.
      0. 0. 0. 0. 0. 0. 0. 0. 0. 0. 0. 0. 0. 0. 0. 0. 0. 0. 0. 0. 0. 0.
      0. 0. 1. 1. 1. 0. 0. 0. 31. 31. 31. 189. 189. 189. 254. 254. 254.
      115. 115. 115. 0. 0. 0. 3. 3. 3. 0. 0. 0. 0. 0. 0. 0. 0. 0. 0. 0.
      0. 0. 0. 0. 0. 0. 0. 0. 0. 0. 0. 0. 0. 0. 0. 0. 0. 0. 0. 0. 0. 0.
      0. 0. 0. 0. 0. 0. 19. 19. 19. 176. 176. 176. 255. 255. 255. 217.
      217. 217. 16. 16. 16. 2. 2. 2. 0. 0. 0. 0. 0. 0. 0. 0. 0. 0. 0. 0.
      0. 0. 0. 1. 1. 1. 0. 0. 0. 0. 0. 0. 0. 0. 0. 1. 1. 1. 1. 1. 1. 0.
      0. 0. 2. 2. 2. 0. 0. 0. 155. 155. 155. 255. 255. 255. 255. 255.
      255. 153. 153. 153. 0. 0. 0. 0. 0. 0. 0. 0. 0. 0. 0. 0. 0. 0. 0.
      0. 0. 0. 0. 0. 0. 0. 0. 0. 0. 0. 0. 3. 3. 3. 0. 0. 0. 1. 1. 1. 0.
      0. 0. 0. 0. 0. 14. 14. 14. 156. 156. 156. 241. 241. 241. 224. 224.
      224. 255. 255. 255. 123. 123. 123. 0. 0. 0. 4. 4. 4. 0. 0. 0. 0.
      0. 0. 0. 0. 0. 0. 0. 0. 0. 0. 0. 0. 0. 0. 3. 3. 3. 0. 0. 0. 0. 0.
      0. 1. 1. 1. 0. 0. 0. 47. 47. 47. 180. 180. 180. 227. 227. 227. 88.
      88. 88. 173. 173. 173. 225. 225. 225. 25. 25. 25. 3. 3. 3. 0. 0.
      0. 0. 0. 0. 0. 0. 0. 0. 0. 0. 0. 0. 0. 0. 0. 0. 0. 0. 0. 1. 1. 1.
      0. 0. 0. 0. 0. 0. 63. 63. 63. 171. 171. 171. 234. 234. 234. 206.
      206. 206. 57. 57. 57. 16. 16. 16. 225. 225. 225. 158. 158. 158. 4.
      4. 4. 3. 3. 3. 0. 0. 0. 5. 5. 5. 0. 0. 0. 0. 0. 0. 0. 0. 0. 0. 0.
      0. 0. 0. 0. 0. 0. 0. 3. 3. 3. 29. 29. 29. 192. 192. 192. 220. 220.
      220. 111. 111. 111. 20. 20. 20. 0. 0. 0. 111. 111. 111. 255. 255.
      255. 91. 91. 91. 1. 1. 1. 0. 0. 0. 0. 0. 0. 0. 0. 0. 0. 0. 0. 0.
      0. 0. 0. 0. 0. 0. 0. 0. 3. 3. 3. 0. 0. 0. 0. 0. 0. 0. 0. 0. 38.
      38. 38. 16. 16. 16. 0. 0. 0. 0. 0. 0. 6. 6. 6. 203. 203. 203. 206.
      206. 206. 24. 24. 24. 0. 0. 0. 0. 0. 0. 1. 1. 1. 0. 0. 0. 0. 0. 0.
      0. 0. 0. 0. 0. 0. 0. 0. 0. 0. 0. 0. 5. 5. 5. 0. 0. 0. 0. 0. 0. 0.
      0. 0. 0. 0. 0. 0. 0. 0. 1. 1. 1. 37. 37. 37. 228. 228. 228. 193.
      193. 193. 0. 0. 0. 1. 1. 1. 0. 0. 0. 2. 2. 2. 0. 0. 0. 0. 0. 0. 0.
      0. 0. 0. 0. 0. 0. 0. 0. 1. 1. 1. 0. 0. 0. 0. 0. 0. 0. 0. 0. 1. 1.
      1. 0. 0. 0. 1. 1. 1. 0. 0. 0. 63. 63. 63. 245. 245. 245. 191. 191.
      191. 0. 0. 0. 0. 0. 0. 0. 0. 0. 0. 0. 0. 1. 1. 1. 0. 0. 0. 0. 0.
      0. 0. 0. 0. 0. 0. 0. 0. 0. 0. 0. 0. 0. 0. 0. 0. 0. 0. 0. 0. 0. 0.
      0. 0. 0. 0. 0. 0. 0. 0. 0. 84. 84. 84. 255. 255. 255. 161. 161.
      161. 2. 2. 2. 0. 0. 0. 2. 2. 2. 0. 0. 0. 0. 0. 0. 0. 0. 0. 0. 0.
      0. 0. 0. 0. 0. 0. 0. 0. 0. 0. 0. 0. 0. 0. 0. 0. 0. 0. 0. 0. 0. 0.
      0. 0. 0. 0. 0. 0. 0. 0. 0. 24. 24. 24. 180. 180. 180. 117. 117.
      117. 2. 2. 2. 1. 1. 1. 0. 0. 0. 0. 0. 0. 0. 0. 0. 0. 0. 0. 0. 0.
      0. 0. 0. 0. 0. 0. 0. 0. 0. 0. 0. 0. 0. 0. 0. 0. 0. 0. 0. 0. 0. 0.
      0. 0. 0. 0. 0. 0. 0. 0. 0. 0. 0. 0. 4. 4. 4. 0. 0. 0. 0. 0. 0. 1.
      1. 1. 1. 1. 1. 0. 0. 0. 1. 1. 1. 0. 0. 0. 0. 0. 0. 0. 0. 0. 0. 0.
      0. 0. 0. 0. 0. 0. 0. 0. 0. 0. 0. 0. 0. 0. 0. 0. 0. 0. 0. 0. 0. 0.
      0. 0. 0. 2. 2. 2. 0. 0. 0. 0. 0. 0. 2. 2. 2. 0. 0. 0. 0. 0. 0. 1.
      1. 1. 0. 0. 0. 0. 0. 0. 0. 0. 0. 0. 0. 0. 0. 0. 0.</_>
    <_>
      0. 0. 0. 0. 0. 0. 0. 0. 0. 0. 0. 0. 0. 0. 0. 0. 0. 0. 0. 0. 0. 0.
      0. 0. 0. 0. 0. 2. 2. 2. 0. 0. 0. 0. 0. 0. 2. 2. 2. 1. 1. 1. 0. 0.
      0. 3. 3. 3. 0. 0. 0. 0. 0. 0. 0. 0. 0. 0. 0. 0. 0. 0. 0. 0. 0. 0.
      0. 0. 0. 0. 0. 0. 0. 0. 0. 0. 0. 0. 0. 0. 0. 0. 0. 0. 0. 0. 0. 0.
      0. 0. 0. 0. 0. 1. 1. 1. 0. 0. 0. 0. 0. 0. 2. 2. 2. 0. 0. 0. 0. 0.
      0. 0. 0. 0. 0. 0. 0. 0. 0. 0. 0. 0. 0. 0. 0. 0. 0. 0. 0. 0. 0. 0.
      0. 0. 0. 0. 0. 0. 0. 0. 0. 0. 0. 0. 3. 3. 3. 0. 0. 0. 12. 12. 12.
      36. 36. 36. 8. 8. 8. 2. 2. 2. 1. 1. 1. 0. 0. 0. 0. 0. 0. 0. 0. 0.
      0. 0. 0. 0. 0. 0. 0. 0. 0. 0. 0. 0. 0. 0. 0. 0. 0. 0. 0. 0. 0. 0.
      0. 0. 0. 0. 0. 0. 0. 0. 0. 0. 0. 0. 0. 0. 140. 140. 140. 253. 253.
      253. 180. 180. 180. 85. 85. 85. 0. 0. 0. 2. 2. 2. 0. 0. 0. 0. 0.
      0. 0. 0. 0. 0. 0. 0. 0. 0. 0. 0. 0. 0. 0. 0. 0. 0. 0. 0. 0. 0. 0.
      0. 0. 0. 0. 0. 0. 0. 0. 0. 2. 2. 2. 21. 21. 21. 230. 230. 230.
      254. 254. 254. 255. 255. 255. 226. 226. 226. 41. 41. 41. 0. 0. 0.
      0. 0. 0. 0. 0. 0. 0. 0. 0. 0. 0. 0. 0. 0. 0. 0. 0. 0. 0. 0. 0. 0.
      0. 0. 0. 0. 0. 0. 0. 0. 0. 0. 0. 0. 0. 0. 0. 0. 0. 94. 94. 94.
      255. 255. 255. 250. 250. 250. 255. 255. 255. 191. 191. 191. 20.
      20. 20. 0. 0. 0. 0. 0. 0. 0. 0. 0. 0. 0. 0. 0. 0. 0. 0. 0. 0. 0.
      0. 0. 0. 0. 0. 0. 0. 0. 0. 0. 0. 0. 0. 0. 0. 0. 0. 0. 0. 0. 3. 3.
      3. 132. 132. 132. 254. 254. 254. 254. 254. 254. 251. 251. 251. 99.
      99. 99. 5. 5. 5. 0. 0. 0. 0. 0. 0. 0. 0. 0. 0. 0. 0. 0. 0. 0. 0.
      0. 0. 0. 0. 0. 0. 0. 0. 0. 0. 0. 0. 0. 0. 0. 0. 0. 0. 0. 0. 0. 0.
      0. 40. 40. 40. 205. 205. 205. 255. 255. 255. 254. 254. 254. 241.
      241. 241. 85. 85. 85. 0. 0. 0. 1. 1. 1. 0. 0. 0. 0. 0. 0. 0. 0. 0.
      0. 0. 0. 0. 0. 0. 3. 3. 3. 0. 0. 0. 0. 0. 0. 1. 1. 1. 0. 0. 0. 1.
      1. 1. 9. 9. 9. 176. 176. 176. 255. 255. 255. 252. 252. 252. 250.
      250. 250. 255. 255. 255. 131. 131. 131. 1. 1. 1. 0. 0. 0. 2. 2. 2.
      0. 0. 0. 1. 1. 1. 0. 0. 0. 0. 0. 0. 0. 0. 0. 2. 2. 2. 0. 0. 0. 2.
      2. 2. 0. 0. 0. 0. 0. 0. 13. 13. 13. 179. 179. 179. 255. 255. 255.
      254. 254. 254. 255. 255. 255. 250. 250. 250. 118. 118. 118. 4. 4.
      4. 3. 3. 3. 0. 0. 0. 0. 0. 0. 7. 7. 7. 0. 0. 0. 0. 0. 0. 2. 2. 2.
      0. 0. 0. 0. 0. 0. 1. 1. 1. 0. 0. 0. 6. 6. 6. 6. 6. 6. 179. 179.
      179. 255. 255. 255. 248. 248. 248. 254. 254. 254. 247. 247. 247.
      180. 180. 180. 104. 104. 104. 66. 66. 66. 0. 0. 0. 5. 5. 5. 24.
      24. 24. 7. 7. 7. 0. 0. 0. 2. 2. 2. 0. 0. 0. 0. 0. 0. 1. 1. 1. 1.
      1. 1. 0. 0. 0. 38. 38. 38. 234. 234. 234. 254. 254. 254. 252. 252.
      252. 249. 249. 249. 114. 114. 114. 6. 6. 6. 19. 19. 19. 9. 9. 9.
      0. 0. 0. 0. 0. 0. 8. 8. 8. 0. 0. 0. 0. 0. 0. 0. 0. 0. 3. 3. 3. 0.
      0. 0. 0. 0. 0. 3. 3. 3. 0. 0. 0. 148. 148. 148. 255. 255. 255.
      249. 249. 249. 251. 251. 251. 232. 232. 232. 24. 24. 24. 0. 0. 0.
      1. 1. 1. 0. 0. 0. 1. 1. 1. 1. 1. 1. 0. 0. 0. 0. 0. 0. 2. 2. 2. 0.
      0. 0. 0. 0. 0. 0. 0. 0. 0. 0. 0. 1. 1. 1. 28. 28. 28. 228. 228.
      228. 255. 255. 255. 254. 254. 254. 255. 255. 255. 231. 231. 231.
      21. 21. 21. 1. 1. 1. 0. 0. 0. 1. 1. 1. 0. 0. 0. 2. 2. 2. 0. 0. 0.
      4. 4. 4. 0. 0. 0. 0. 0. 0. 0. 0. 0. 4. 4. 4. 1. 1. 1. 0. 0. 0. 68.
      68. 68. 236. 236. 236. 252. 252. 252. 251. 251. 251. 251. 251.
      251. 164. 164. 164. 9. 9. 9. 1. 1. 1. 0. 0. 0. 1. 1. 1. 0. 0. 0.
      0. 0. 0. 0. 0. 0. 0. 0. 0. 1. 1. 1. 1. 1. 1. 0. 0. 0. 0. 0. 0. 0.
      0. 0. 1. 1. 1. 102. 102. 102. 255. 255. 255. 254. 254. 254. 254.
      254. 254. 218. 218. 218. 28. 28. 28. 0. 0. 0. 1. 1. 1. 0. 0. 0. 0.
      0. 0. 1. 1. 1. 0. 0. 0. 2. 2. 2. 0. 0. 0. 0. 0. 0. 1. 1. 1. 0. 0.
      0. 0. 0. 0. 0. 0. 0. 0. 0. 0. 25. 25. 25. 170. 170. 170. 255. 255.
      255. 214. 214. 214. 89. 89. 89. 0. 0. 0. 0. 0. 0. 2. 2. 2. 0. 0.
      0. 0. 0. 0. 0. 0. 0. 0. 0. 0. 0. 0. 0. 0. 0. 0. 1. 1. 1. 1. 1. 1.
      0. 0. 0. 1. 1. 1. 0. 0. 0. 4. 4. 4. 0. 0. 0. 10. 10. 10. 35. 35.
      35. 20. 20. 20. 0. 0. 0. 0. 0. 0. 3. 3. 3. 0. 0. 0. 2. 2. 2. 0. 0.
      0. 0. 0. 0. 0. 0. 0. 0. 0. 0. 0. 0. 0. 1. 1. 1. 0. 0. 0. 0. 0. 0.
      3. 3. 3. 0. 0. 0. 0. 0. 0. 5. 5. 5. 1. 1. 1. 2. 2. 2. 0. 0. 0. 0.
      0. 0. 3. 3. 3. 0. 0. 0. 0. 0. 0. 2. 2. 2. 0. 0. 0. 0. 0. 0. 0. 0.
      0. 0. 0. 0. 0. 0. 0. 0. 0. 0. 0. 0. 0. 2. 2. 2. 1. 1. 1. 3. 3. 3.
      0. 0. 0. 0. 0. 0. 0. 0. 0. 0. 0. 0. 0. 0. 0. 0. 0. 0. 0. 0. 0. 2.
      2. 2. 1. 1. 1. 0. 0. 0. 1. 1. 1. 0. 0. 0. 0. 0. 0. 0. 0. 0. 0. 0.
      0.</_>
    <_>
      0. 0. 0. 0. 0. 0. 0. 0. 0. 0. 0. 0. 0. 0. 0. 0. 0. 0. 0. 0. 0. 0.
      0. 0. 3. 3. 3. 0. 0. 0. 0. 0. 0. 0. 0. 0. 2. 2. 2. 0. 0. 0. 1. 1.
      1. 0. 0. 0. 0. 0. 0. 0. 0. 0. 0. 0. 0. 0. 0. 0. 0. 0. 0. 0. 0. 0.
      0. 0. 0. 0. 0. 0. 0. 0. 0. 0. 0. 0. 0. 0. 0. 0. 0. 0. 0. 0. 0. 3.
      3. 3. 0. 0. 0. 0. 0. 0. 0. 0. 0. 1. 1. 1. 1. 1. 1. 0. 0. 0. 0. 0.
      0. 0. 0. 0. 0. 0. 0. 0. 0. 0. 0. 0. 0. 0. 0. 0. 0. 0. 0. 0. 0. 0.
      0. 0. 0. 0. 0. 0. 0. 0. 0. 0. 0. 0. 6. 6. 6. 0. 0. 0. 1. 1. 1. 31.
      31. 31. 36. 36. 36. 6. 6. 6. 2. 2. 2. 0. 0. 0. 0. 0. 0. 0. 0. 0.
      0. 0. 0. 0. 0. 0. 0. 0. 0. 0. 0. 0. 0. 0. 0. 0. 0. 0. 0. 0. 0. 0.
      0. 0. 0. 0. 0. 0. 0. 0. 0. 0. 0. 0. 0. 0. 102. 102. 102. 247. 247.
      247. 255. 255. 255. 109. 109. 109. 1. 1. 1. 0. 0. 0. 0. 0. 0. 0.
      0. 0. 0. 0. 0. 0. 0. 0. 0. 0. 0. 0. 0. 0. 0. 0. 0. 0. 0. 0. 0. 0.
      0. 0. 0. 0. 0. 0. 0. 0. 0. 0. 2. 2. 2. 26. 26. 26. 233. 233. 233.
      255. 255. 255. 255. 255. 255. 200. 200. 200. 48. 48. 48. 0. 0. 0.
      0. 0. 0. 0. 0. 0. 0. 0. 0. 0. 0. 0. 0. 0. 0. 0. 0. 0. 0. 0. 0. 0.
      0. 0. 0. 0. 0. 0. 0. 0. 0. 0. 0. 0. 0. 0. 0. 0. 0. 43. 43. 43.
      250. 250. 250. 253. 253. 253. 252. 252. 252. 249. 249. 249. 124.
      124. 124. 0. 0. 0. 0. 0. 0. 0. 0. 0. 0. 0. 0. 0. 0. 0. 0. 0. 0. 0.
      0. 0. 0. 0. 0. 0. 0. 0. 0. 0. 0. 0. 0. 0. 0. 0. 0. 0. 0. 0. 1. 1.
      1. 127. 127. 127. 253. 253. 253. 252. 252. 252. 255. 255. 255.
      212. 212. 212. 29. 29. 29. 0. 0. 0. 0. 0. 0. 0. 0. 0. 0. 0. 0. 0.
      0. 0. 0. 0. 0. 0. 0. 0. 0. 0. 0. 0. 0. 0. 0. 0. 0. 0. 0. 0. 0. 0.
      0. 0. 0. 0. 40. 40. 40. 215. 215. 215. 255. 255. 255. 252. 252.
      252. 252. 252. 252. 141. 141. 141. 0. 0. 0. 0. 0. 0. 0. 0. 0. 0.
      0. 0. 0. 0. 0. 0. 0. 0. 0. 0. 0. 0. 0. 0. 2. 2. 2. 1. 1. 1. 0. 0.
      0. 2. 2. 2. 0. 0. 0. 0. 0. 0. 83. 83. 83. 248. 248. 248. 255. 255.
      255. 251. 251. 251. 255. 255. 255. 124. 124. 124. 0. 0. 0. 1. 1.
      1. 0. 0. 0. 0. 0. 0. 0. 0. 0. 0. 0. 0. 3. 3. 3. 0. 0. 0. 0. 0. 0.
      1. 1. 1. 0. 0. 0. 0. 0. 0. 1. 1. 1. 0. 0. 0. 137. 137. 137. 255.
      255. 255. 249. 249. 249. 255. 255. 255. 240. 240. 240. 66. 66. 66.
      4. 4. 4. 0. 0. 0. 0. 0. 0. 0. 0. 0. 0. 0. 0. 0. 0. 0. 0. 0. 0. 0.
      0. 0. 0. 0. 0. 0. 0. 0. 5. 5. 5. 1. 1. 1. 3. 3. 3. 70. 70. 70.
      190. 190. 190. 249. 249. 249. 254. 254. 254. 255. 255. 255. 240.
      240. 240. 63. 63. 63. 0. 0. 0. 1. 1. 1. 0. 0. 0. 0. 0. 0. 0. 0. 0.
      0. 0. 0. 1. 1. 1. 2. 2. 2. 0. 0. 0. 2. 2. 2. 0. 0. 0. 0. 0. 0. 0.
      0. 0. 182. 182. 182. 252. 252. 252. 255. 255. 255. 251. 251. 251.
      252. 252. 252. 251. 251. 251. 86. 86. 86. 0. 0. 0. 2. 2. 2. 0. 0.
      0. 0. 0. 0. 0. 0. 0. 0. 0. 0. 0. 0. 0. 2. 2. 2. 0. 0. 0. 0. 0. 0.
      1. 1. 1. 1. 1. 1. 3. 3. 3. 53. 53. 53. 159. 159. 159. 249. 249.
      249. 252. 252. 252. 233. 233. 233. 200. 200. 200. 65. 65. 65. 0.
      0. 0. 0. 0. 0. 0. 0. 0. 0. 0. 0. 0. 0. 0. 0. 0. 0. 2. 2. 2. 0. 0.
      0. 2. 2. 2. 0. 0. 0. 1. 1. 1. 2. 2. 2. 1. 1. 1. 130. 130. 130.
      210. 210. 210. 250. 250. 250. 235. 235. 235. 74. 74. 74. 2. 2. 2.
      0. 0. 0. 1. 1. 1. 0. 0. 0. 0. 0. 0. 0. 0. 0. 0. 0. 0. 0. 0. 0. 0.
      0. 0. 0. 0. 0. 0. 0. 0. 5. 5. 5. 0. 0. 0. 0. 0. 0. 120. 120. 120.
      253. 253. 253. 255. 255. 255. 252. 252. 252. 250. 250. 250. 130.
      130. 130. 0. 0. 0. 0. 0. 0. 0. 0. 0. 0. 0. 0. 0. 0. 0. 0. 0. 0. 0.
      0. 0. 0. 0. 0. 0. 0. 0. 0. 0. 0. 2. 2. 2. 0. 0. 0. 0. 0. 0. 0. 0.
      0. 149. 149. 149. 255. 255. 255. 249. 249. 249. 255. 255. 255.
      229. 229. 229. 62. 62. 62. 0. 0. 0. 0. 0. 0. 0. 0. 0. 0. 0. 0. 0.
      0. 0. 0. 0. 0. 0. 0. 0. 0. 0. 0. 1. 1. 1. 0. 0. 0. 0. 0. 0. 1. 1.
      1. 0. 0. 0. 0. 0. 0. 34. 34. 34. 172. 172. 172. 255. 255. 255.
      249. 249. 249. 102. 102. 102. 1. 1. 1. 0. 0. 0. 0. 0. 0. 1. 1. 1.
      0. 0. 0. 0. 0. 0. 0. 0. 0. 0. 0. 0. 0. 0. 0. 0. 0. 0. 0. 0. 0. 0.
      0. 0. 0. 0. 0. 0. 0. 0. 3. 3. 3. 0. 0. 0. 8. 8. 8. 34. 34. 34. 33.
      33. 33. 0. 0. 0. 0. 0. 0. 3. 3. 3. 0. 0. 0. 1. 1. 1. 1. 1. 1. 0.
      0. 0. 0. 0. 0. 0. 0. 0. 0. 0. 0. 0. 0. 0. 2. 2. 2. 0. 0. 0. 0. 0.
      0. 1. 1. 1. 0. 0. 0. 4. 4. 4. 1. 1. 1. 2. 2. 2. 0. 0. 0. 0. 0. 0.
      2. 2. 2. 0. 0. 0. 0. 0. 0. 0. 0. 0. 0. 0. 0. 0. 0. 0. 0. 0. 0. 0.
      0. 0. 0. 0. 0. 0. 0. 0. 0. 0. 0. 1. 1. 1. 0. 0. 0. 5. 5. 5. 0. 0.
      0. 0. 0. 0. 1. 1. 1. 0. 0. 0. 0. 0. 0. 1. 1. 1. 0. 0. 0. 1. 1. 1.
      4. 4. 4. 0. 0. 0. 1. 1. 1. 0. 0. 0. 0. 0. 0. 0. 0. 0. 0. 0. 0.</_>
    <_>
      0. 0. 0. 0. 0. 0. 0. 0. 0. 0. 0. 0. 0. 0. 0. 0. 0. 0. 0. 0. 0. 0.
      0. 0. 1. 1. 1. 0. 0. 0. 3. 3. 3. 0. 0. 0. 0. 0. 0. 2. 2. 2. 0. 0.
      0. 1. 1. 1. 0. 0. 0. 0. 0. 0. 0. 0. 0. 0. 0. 0. 0. 0. 0. 0. 0. 0.
      0. 0. 0. 0. 0. 0. 0. 0. 0. 0. 0. 0. 0. 0. 0. 0. 0. 0. 0. 0. 0. 0.
      0. 0. 0. 0. 0. 4. 4. 4. 0. 0. 0. 0. 0. 0. 0. 0. 0. 1. 1. 1. 0. 0.
      0. 0. 0. 0. 0. 0. 0. 0. 0. 0. 0. 0. 0. 0. 0. 0. 0. 0. 0. 0. 0. 0.
      0. 0. 0. 0. 0. 0. 0. 0. 0. 0. 0. 0. 4. 4. 4. 0. 0. 0. 14. 14. 14.
      37. 37. 37. 17. 17. 17. 0. 0. 0. 0. 0. 0. 0. 0. 0. 0. 0. 0. 0. 0.
      0. 0. 0. 0. 0. 0. 0. 0. 0. 0. 0. 0. 0. 0. 0. 0. 0. 0. 0. 0. 0. 0.
      0. 0. 0. 0. 0. 0. 0. 0. 0. 0. 0. 0. 39. 39. 39. 192. 192. 192.
      255. 255. 255. 126. 126. 126. 2. 2. 2. 0. 0. 0. 1. 1. 1. 0. 0. 0.
      0. 0. 0. 0. 0. 0. 0. 0. 0. 0. 0. 0. 0. 0. 0. 0. 0. 0. 0. 0. 0. 0.
      0. 0. 0. 0. 0. 0. 0. 0. 0. 0. 0. 1. 1. 1. 95. 95. 95. 253. 253.
      253. 255. 255. 255. 189. 189. 189. 0. 0. 0. 2. 2. 2. 0. 0. 0. 0.
      0. 0. 0. 0. 0. 0. 0. 0. 0. 0. 0. 0. 0. 0. 0. 0. 0. 0. 0. 0. 0. 0.
      0. 0. 0. 0. 0. 0. 0. 0. 0. 0. 0. 0. 0. 1. 1. 1. 152. 152. 152.
      253. 253. 253. 255. 255. 255. 223. 223. 223. 9. 9. 9. 0. 0. 0. 4.
      4. 4. 0. 0. 0. 0. 0. 0. 0. 0. 0. 0. 0. 0. 0. 0. 0. 0. 0. 0. 0. 0.
      0. 0. 0. 0. 0. 0. 0. 0. 0. 0. 0. 0. 0. 0. 0. 0. 14. 14. 14. 196.
      196. 196. 255. 255. 255. 255. 255. 255. 200. 200. 200. 4. 4. 4. 0.
      0. 0. 0. 0. 0. 0. 0. 0. 0. 0. 0. 0. 0. 0. 0. 0. 0. 0. 0. 0. 0. 0.
      0. 0. 0. 0. 0. 0. 0. 0. 0. 0. 0. 0. 0. 0. 0. 0. 0. 0. 0. 82. 82.
      82. 245. 245. 245. 255. 255. 255. 253. 253. 253. 166. 166. 166. 0.
      0. 0. 1. 1. 1. 0. 0. 0. 0. 0. 0. 0. 0. 0. 0. 0. 0. 0. 0. 0. 1. 1.
      1. 1. 1. 1. 0. 0. 0. 0. 0. 0. 0. 0. 0. 3. 3. 3. 0. 0. 0. 0. 0. 0.
      96. 96. 96. 250. 250. 250. 254. 254. 254. 253. 253. 253. 164. 164.
      164. 1. 1. 1. 0. 0. 0. 0. 0. 0. 0. 0. 0. 0. 0. 0. 0. 0. 0. 0. 0.
      0. 0. 0. 0. 2. 2. 2. 1. 1. 1. 0. 0. 0. 5. 5. 5. 0. 0. 0. 0. 0. 0.
      1. 1. 1. 136. 136. 136. 255. 255. 255. 254. 254. 254. 255. 255.
      255. 119. 119. 119. 0. 0. 0. 0. 0. 0. 2. 2. 2. 0. 0. 0. 0. 0. 0.
      0. 0. 0. 0. 0. 0. 1. 1. 1. 0. 0. 0. 1. 1. 1. 0. 0. 0. 0. 0. 0. 3.
      3. 3. 3. 3. 3. 29. 29. 29. 209. 209. 209. 255. 255. 255. 254. 254.
      254. 238. 238. 238. 47. 47. 47. 0. 0. 0. 7. 7. 7. 0. 0. 0. 0. 0.
      0. 0. 0. 0. 0. 0. 0. 0. 0. 0. 0. 0. 0. 0. 0. 0. 0. 0. 0. 1. 1. 1.
      0. 0. 0. 1. 1. 1. 0. 0. 0. 74. 74. 74. 255. 255. 255. 249. 249.
      249. 255. 255. 255. 248. 248. 248. 116. 116. 116. 0. 0. 0. 0. 0.
      0. 0. 0. 0. 0. 0. 0. 0. 0. 0. 0. 0. 0. 0. 0. 0. 0. 0. 0. 0. 0. 0.
      0. 0. 0. 1. 1. 1. 4. 4. 4. 0. 0. 0. 0. 0. 0. 69. 69. 69. 254. 254.
      254. 252. 252. 252. 253. 253. 253. 255. 255. 255. 146. 146. 146.
      2. 2. 2. 0. 0. 0. 0. 0. 0. 0. 0. 0. 0. 0. 0. 0. 0. 0. 0. 0. 0. 1.
      1. 1. 0. 0. 0. 0. 0. 0. 0. 0. 0. 0. 0. 0. 0. 0. 0. 2. 2. 2. 82.
      82. 82. 255. 255. 255. 252. 252. 252. 255. 255. 255. 241. 241.
      241. 52. 52. 52. 0. 0. 0. 0. 0. 0. 3. 3. 3. 0. 0. 0. 0. 0. 0. 0.
      0. 0. 0. 0. 0. 0. 0. 0. 3. 3. 3. 0. 0. 0. 0. 0. 0. 3. 3. 3. 0. 0.
      0. 16. 16. 16. 177. 177. 177. 252. 252. 252. 255. 255. 255. 255.
      255. 255. 151. 151. 151. 2. 2. 2. 4. 4. 4. 0. 0. 0. 0. 0. 0. 0. 0.
      0. 0. 0. 0. 0. 0. 0. 0. 0. 0. 0. 0. 0. 0. 0. 0. 1. 1. 1. 0. 0. 0.
      0. 0. 0. 0. 0. 0. 76. 76. 76. 249. 249. 249. 255. 255. 255. 252.
      252. 252. 207. 207. 207. 22. 22. 22. 0. 0. 0. 2. 2. 2. 0. 0. 0. 1.
      1. 1. 0. 0. 0. 0. 0. 0. 0. 0. 0. 0. 0. 0. 0. 0. 0. 0. 0. 0. 1. 1.
      1. 0. 0. 0. 1. 1. 1. 0. 0. 0. 57. 57. 57. 193. 193. 193. 213. 213.
      213. 225. 225. 225. 102. 102. 102. 1. 1. 1. 0. 0. 0. 0. 0. 0. 1.
      1. 1. 0. 0. 0. 0. 0. 0. 0. 0. 0. 0. 0. 0. 0. 0. 0. 1. 1. 1. 0. 0.
      0. 1. 1. 1. 0. 0. 0. 0. 0. 0. 1. 1. 1. 2. 2. 2. 17. 17. 17. 19.
      19. 19. 26. 26. 26. 2. 2. 2. 0. 0. 0. 3. 3. 3. 0. 0. 0. 2. 2. 2.
      0. 0. 0. 0. 0. 0. 0. 0. 0. 0. 0. 0. 0. 0. 0. 1. 1. 1. 1. 1. 1. 0.
      0. 0. 1. 1. 1. 0. 0. 0. 0. 0. 0. 3. 3. 3. 1. 1. 1. 1. 1. 1. 1. 1.
      1. 1. 1. 1. 2. 2. 2. 0. 0. 0. 0. 0. 0. 2. 2. 2. 0. 0. 0. 0. 0. 0.
      0. 0. 0. 0. 0. 0. 0. 0. 0. 0. 0. 0. 4. 4. 4. 0. 0. 0. 0. 0. 0. 3.
      3. 3. 0. 0. 0. 0. 0. 0. 0. 0. 0. 0. 0. 0. 0. 0. 0. 0. 0. 0. 0. 0.
      0. 2. 2. 2. 2. 2. 2. 0. 0. 0. 1. 1. 1. 0. 0. 0. 0. 0. 0. 0. 0. 0.
      0. 0. 0.</_>
    <_>
      0. 0. 0. 0. 0. 0. 0. 0. 0. 0. 0. 0. 0. 0. 0. 0. 0. 0. 0. 0. 0. 0.
      0. 0. 0. 0. 0. 2. 2. 2. 2. 2. 2. 0. 0. 0. 0. 0. 0. 1. 1. 1. 0. 0.
      0. 1. 1. 1. 1. 1. 1. 0. 0. 0. 3. 3. 3. 0. 0. 0. 0. 0. 0. 0. 0. 0.
      0. 0. 0. 0. 0. 0. 0. 0. 0. 0. 0. 0. 0. 0. 0. 0. 0. 0. 3. 3. 3. 0.
      0. 0. 0. 0. 0. 1. 1. 1. 0. 0. 0. 0. 0. 0. 0. 0. 0. 0. 0. 0. 0. 0.
      0. 1. 1. 1. 0. 0. 0. 3. 3. 3. 0. 0. 0. 0. 0. 0. 0. 0. 0. 0. 0. 0.
      0. 0. 0. 0. 0. 0. 0. 0. 0. 0. 0. 0. 0. 0. 0. 5. 5. 5. 0. 0. 0. 0.
      0. 0. 1. 1. 1. 1. 1. 1. 0. 0. 0. 0. 0. 0. 0. 0. 0. 0. 0. 0. 2. 2.
      2. 0. 0. 0. 0. 0. 0. 0. 0. 0. 0. 0. 0. 0. 0. 0. 0. 0. 0. 0. 0. 0.
      0. 0. 0. 0. 0. 0. 0. 0. 0. 0. 0. 0. 2. 2. 2. 4. 4. 4. 2. 2. 2. 0.
      0. 0. 1. 1. 1. 0. 0. 0. 2. 2. 2. 0. 0. 0. 0. 0. 0. 3. 3. 3. 0. 0.
      0. 0. 0. 0. 0. 0. 0. 0. 0. 0. 0. 0. 0. 0. 0. 0. 0. 0. 0. 0. 0. 0.
      1. 1. 1. 0. 0. 0. 0. 0. 0. 0. 0. 0. 0. 0. 0. 84. 84. 84. 166. 166.
      166. 148. 148. 148. 37. 37. 37. 0. 0. 0. 2. 2. 2. 0. 0. 0. 0. 0.
      0. 0. 0. 0. 0. 0. 0. 0. 0. 0. 0. 0. 0. 0. 0. 0. 0. 0. 0. 0. 0. 0.
      0. 0. 0. 2. 2. 2. 0. 0. 0. 1. 1. 1. 32. 32. 32. 195. 195. 195.
      255. 255. 255. 169. 169. 169. 49. 49. 49. 0. 0. 0. 0. 0. 0. 0. 0.
      0. 0. 0. 0. 0. 0. 0. 0. 0. 0. 0. 0. 0. 0. 0. 0. 0. 0. 0. 0. 0. 0.
      0. 0. 0. 3. 3. 3. 0. 0. 0. 0. 0. 0. 32. 32. 32. 188. 188. 188.
      255. 255. 255. 227. 227. 227. 16. 16. 16. 0. 0. 0. 2. 2. 2. 0. 0.
      0. 2. 2. 2. 0. 0. 0. 0. 0. 0. 0. 0. 0. 0. 0. 0. 0. 0. 0. 0. 0. 0.
      0. 0. 0. 0. 0. 0. 0. 0. 0. 1. 1. 1. 87. 87. 87. 199. 199. 199.
      255. 255. 255. 185. 185. 185. 59. 59. 59. 0. 0. 0. 0. 0. 0. 19.
      19. 19. 64. 64. 64. 0. 0. 0. 0. 0. 0. 2. 2. 2. 0. 0. 0. 3. 3. 3.
      0. 0. 0. 0. 0. 0. 4. 4. 4. 0. 0. 0. 0. 0. 0. 107. 107. 107. 247.
      247. 247. 253. 253. 253. 227. 227. 227. 60. 60. 60. 0. 0. 0. 1. 1.
      1. 0. 0. 0. 17. 17. 17. 53. 53. 53. 4. 4. 4. 0. 0. 0. 0. 0. 0. 1.
      1. 1. 2. 2. 2. 0. 0. 0. 4. 4. 4. 0. 0. 0. 0. 0. 0. 99. 99. 99.
      242. 242. 242. 255. 255. 255. 234. 234. 234. 74. 74. 74. 0. 0. 0.
      3. 3. 3. 0. 0. 0. 0. 0. 0. 0. 0. 0. 1. 1. 1. 0. 0. 0. 3. 3. 3. 0.
      0. 0. 0. 0. 0. 0. 0. 0. 1. 1. 1. 0. 0. 0. 1. 1. 1. 96. 96. 96.
      255. 255. 255. 255. 255. 255. 226. 226. 226. 60. 60. 60. 4. 4. 4.
      1. 1. 1. 0. 0. 0. 4. 4. 4. 1. 1. 1. 2. 2. 2. 0. 0. 0. 2. 2. 2. 0.
      0. 0. 4. 4. 4. 0. 0. 0. 0. 0. 0. 0. 0. 0. 1. 1. 1. 30. 30. 30.
      204. 204. 204. 251. 251. 251. 240. 240. 240. 73. 73. 73. 1. 1. 1.
      0. 0. 0. 0. 0. 0. 0. 0. 0. 0. 0. 0. 1. 1. 1. 0. 0. 0. 4. 4. 4. 0.
      0. 0. 1. 1. 1. 0. 0. 0. 3. 3. 3. 3. 3. 3. 0. 0. 0. 42. 42. 42.
      188. 188. 188. 255. 255. 255. 237. 237. 237. 127. 127. 127. 0. 0.
      0. 3. 3. 3. 0. 0. 0. 3. 3. 3. 1. 1. 1. 0. 0. 0. 0. 0. 0. 0. 0. 0.
      0. 0. 0. 0. 0. 0. 0. 0. 0. 1. 1. 1. 0. 0. 0. 0. 0. 0. 102. 102.
      102. 226. 226. 226. 255. 255. 255. 254. 254. 254. 143. 143. 143.
      5. 5. 5. 2. 2. 2. 0. 0. 0. 0. 0. 0. 0. 0. 0. 2. 2. 2. 0. 0. 0. 1.
      1. 1. 2. 2. 2. 0. 0. 0. 2. 2. 2. 0. 0. 0. 0. 0. 0. 4. 4. 4. 0. 0.
      0. 195. 195. 195. 255. 255. 255. 255. 255. 255. 164. 164. 164. 11.
      11. 11. 0. 0. 0. 0. 0. 0. 1. 1. 1. 1. 1. 1. 0. 0. 0. 0. 0. 0. 0.
      0. 0. 1. 1. 1. 1. 1. 1. 0. 0. 0. 0. 0. 0. 0. 0. 0. 1. 1. 1. 0. 0.
      0. 1. 1. 1. 114. 114. 114. 166. 166. 166. 126. 126. 126. 17. 17.
      17. 0. 0. 0. 0. 0. 0. 2. 2. 2. 0. 0. 0. 1. 1. 1. 0. 0. 0. 0. 0. 0.
      0. 0. 0. 0. 0. 0. 0. 0. 0. 2. 2. 2. 1. 1. 1. 0. 0. 0. 0. 0. 0. 0.
      0. 0. 0. 0. 0. 0. 0. 0. 0. 0. 0. 0. 0. 0. 0. 0. 0. 0. 0. 0. 0. 0.
      0. 0. 0. 0. 0. 0. 0. 0. 0. 0. 0. 0. 0. 0. 0. 0. 0. 0. 0. 0. 0. 0.
      0. 0. 0. 0. 0. 0. 0. 0. 0. 0. 0. 0. 0. 0. 0. 0. 0. 0. 0. 0. 0. 0.
      0. 0. 0. 0. 0. 0. 0. 0. 0. 0. 0. 0. 0. 0. 0. 0. 0. 0. 0. 0. 0. 0.
      0. 0. 0. 0. 0. 0. 0. 0. 0. 0. 0. 0. 0. 0. 0. 0. 0. 0. 0. 0. 0. 0.
      0. 0. 0. 0. 0. 0. 0. 0. 0. 0. 0. 0. 0. 0. 0. 0. 0. 0. 0. 0. 0. 0.
      0. 0. 0. 0. 0. 0. 0. 0. 0. 0. 0. 0. 0. 0. 0. 0. 0. 0. 0. 0. 0. 0.
      0. 0. 0. 0. 0. 0. 0. 0. 0. 0. 0. 0. 0. 0. 0. 0. 0. 0. 0. 0. 0. 0.
      0. 0. 0. 0. 0. 0. 0. 0. 0. 0. 0. 0. 0. 0. 0. 0. 0. 0. 0. 0. 0. 0.
      0. 0. 0. 0. 0. 0. 0. 0. 0. 0. 0. 0. 0. 0. 0. 0. 0. 0. 0. 0. 0. 0.
      0. 0. 0. 0. 0. 0. 0. 0. 0. 0. 0. 0. 0.</_>
    <_>
      1. 1. 1. 0. 0. 0. 0. 0. 0. 2. 2. 2. 0. 0. 0. 1. 1. 1. 0. 0. 0. 0.
      0. 0. 1. 1. 1. 0. 0. 0. 0. 0. 0. 0. 0. 0. 0. 0. 0. 1. 1. 1. 0. 0.
      0. 0. 0. 0. 0. 0. 0. 0. 0. 0. 0. 0. 0. 0. 0. 0. 0. 0. 0. 4. 4. 4.
      0. 0. 0. 0. 0. 0. 0. 0. 0. 0. 0. 0. 3. 3. 3. 1. 1. 1. 0. 0. 0. 1.
      1. 1. 2. 2. 2. 0. 0. 0. 0. 0. 0. 3. 3. 3. 0. 0. 0. 2. 2. 2. 0. 0.
      0. 0. 0. 0. 0. 0. 0. 0. 0. 0. 0. 0. 0. 1. 1. 1. 1. 1. 1. 1. 1. 1.
      0. 0. 0. 1. 1. 1. 0. 0. 0. 0. 0. 0. 0. 0. 0. 0. 0. 0. 8. 8. 8. 29.
      29. 29. 3. 3. 3. 1. 1. 1. 0. 0. 0. 0. 0. 0. 0. 0. 0. 0. 0. 0. 0.
      0. 0. 0. 0. 0. 1. 1. 1. 2. 2. 2. 0. 0. 0. 1. 1. 1. 2. 2. 2. 0. 0.
      0. 0. 0. 0. 2. 2. 2. 0. 0. 0. 14. 14. 14. 154. 154. 154. 218. 218.
      218. 26. 26. 26. 0. 0. 0. 3. 3. 3. 0. 0. 0. 0. 0. 0. 0. 0. 0. 0.
      0. 0. 0. 0. 0. 0. 0. 0. 0. 0. 0. 0. 0. 0. 0. 0. 0. 1. 1. 1. 1. 1.
      1. 4. 4. 4. 0. 0. 0. 63. 63. 63. 183. 183. 183. 215. 215. 215.
      193. 193. 193. 13. 13. 13. 0. 0. 0. 0. 0. 0. 2. 2. 2. 0. 0. 0. 0.
      0. 0. 0. 0. 0. 0. 0. 0. 2. 2. 2. 2. 2. 2. 3. 3. 3. 2. 2. 2. 0. 0.
      0. 0. 0. 0. 0. 0. 0. 69. 69. 69. 237. 237. 237. 110. 110. 110.
      116. 116. 116. 164. 164. 164. 0. 0. 0. 0. 0. 0. 3. 3. 3. 0. 0. 0.
      0. 0. 0. 0. 0. 0. 0. 0. 0. 0. 0. 0. 0. 0. 0. 2. 2. 2. 0. 0. 0. 0.
      0. 0. 4. 4. 4. 0. 0. 0. 1. 1. 1. 141. 141. 141. 150. 150. 150. 0.
      0. 0. 114. 114. 114. 184. 184. 184. 8. 8. 8. 0. 0. 0. 0. 0. 0. 4.
      4. 4. 0. 0. 0. 0. 0. 0. 0. 0. 0. 0. 0. 0. 1. 1. 1. 0. 0. 0. 5. 5.
      5. 0. 0. 0. 0. 0. 0. 0. 0. 0. 1. 1. 1. 20. 20. 20. 15. 15. 15. 0.
      0. 0. 125. 125. 125. 148. 148. 148. 0. 0. 0. 1. 1. 1. 2. 2. 2. 0.
      0. 0. 0. 0. 0. 0. 0. 0. 0. 0. 0. 0. 0. 0. 3. 3. 3. 0. 0. 0. 0. 0.
      0. 0. 0. 0. 0. 0. 0. 0. 0. 0. 0. 0. 0. 0. 0. 0. 0. 0. 0. 0. 0. 0.
      159. 159. 159. 122. 122. 122. 0. 0. 0. 0. 0. 0. 0. 0. 0. 0. 0. 0.
      0. 0. 0. 0. 0. 0. 0. 0. 0. 0. 0. 0. 0. 0. 0. 0. 0. 0. 0. 0. 0. 0.
      0. 0. 1. 1. 1. 1. 1. 1. 1. 1. 1. 1. 1. 1. 1. 1. 1. 6. 6. 6. 191.
      191. 191. 87. 87. 87. 0. 0. 0. 2. 2. 2. 1. 1. 1. 0. 0. 0. 0. 0. 0.
      0. 0. 0. 0. 0. 0. 0. 0. 0. 0. 0. 0. 0. 0. 0. 1. 1. 1. 0. 0. 0. 0.
      0. 0. 0. 0. 0. 0. 0. 0. 0. 0. 0. 0. 0. 0. 15. 15. 15. 203. 203.
      203. 66. 66. 66. 1. 1. 1. 1. 1. 1. 0. 0. 0. 2. 2. 2. 0. 0. 0. 0.
      0. 0. 0. 0. 0. 0. 0. 0. 0. 0. 0. 1. 1. 1. 0. 0. 0. 0. 0. 0. 0. 0.
      0. 0. 0. 0. 0. 0. 0. 0. 0. 0. 0. 0. 0. 35. 35. 35. 217. 217. 217.
      50. 50. 50. 1. 1. 1. 0. 0. 0. 1. 1. 1. 0. 0. 0. 0. 0. 0. 0. 0. 0.
      0. 0. 0. 0. 0. 0. 0. 0. 0. 0. 0. 0. 0. 0. 0. 0. 0. 0. 0. 0. 0. 1.
      1. 1. 1. 1. 1. 0. 0. 0. 0. 0. 0. 71. 71. 71. 197. 197. 197. 21.
      21. 21. 0. 0. 0. 0. 0. 0. 1. 1. 1. 0. 0. 0. 0. 0. 0. 0. 0. 0. 0.
      0. 0. 0. 0. 0. 0. 0. 0. 0. 0. 0. 0. 0. 0. 1. 1. 1. 1. 1. 1. 0. 0.
      0. 0. 0. 0. 0. 0. 0. 1. 1. 1. 135. 135. 135. 158. 158. 158. 0. 0.
      0. 4. 4. 4. 2. 2. 2. 0. 0. 0. 2. 2. 2. 0. 0. 0. 0. 0. 0. 0. 0. 0.
      0. 0. 0. 1. 1. 1. 0. 0. 0. 0. 0. 0. 1. 1. 1. 0. 0. 0. 0. 0. 0. 0.
      0. 0. 3. 3. 3. 0. 0. 0. 163. 163. 163. 149. 149. 149. 1. 1. 1. 0.
      0. 0. 0. 0. 0. 4. 4. 4. 0. 0. 0. 0. 0. 0. 0. 0. 0. 0. 0. 0. 0. 0.
      0. 1. 1. 1. 0. 0. 0. 0. 0. 0. 1. 1. 1. 0. 0. 0. 0. 0. 0. 5. 5. 5.
      12. 12. 12. 71. 71. 71. 205. 205. 205. 211. 211. 211. 89. 89. 89.
      0. 0. 0. 0. 0. 0. 0. 0. 0. 0. 0. 0. 0. 0. 0. 0. 0. 0. 0. 0. 0. 0.
      0. 0. 0. 0. 0. 0. 0. 0. 0. 0. 0. 3. 3. 3. 0. 0. 0. 1. 1. 1. 80.
      80. 80. 192. 192. 192. 232. 232. 232. 253. 253. 253. 164. 164.
      164. 62. 62. 62. 0. 0. 0. 0. 0. 0. 0. 0. 0. 1. 1. 1. 0. 0. 0. 0.
      0. 0. 0. 0. 0. 0. 0. 0. 1. 1. 1. 1. 1. 1. 0. 0. 0. 0. 0. 0. 1. 1.
      1. 2. 2. 2. 20. 20. 20. 48. 48. 48. 31. 31. 31. 34. 34. 34. 5. 5.
      5. 0. 0. 0. 0. 0. 0. 1. 1. 1. 0. 0. 0. 1. 1. 1. 0. 0. 0. 0. 0. 0.
      0. 0. 0. 0. 0. 0. 0. 0. 0. 0. 0. 0. 1. 1. 1. 0. 0. 0. 0. 0. 0. 0.
      0. 0. 1. 1. 1. 0. 0. 0. 0. 0. 0. 0. 0. 0. 0. 0. 0. 2. 2. 2. 3. 3.
      3. 0. 0. 0. 1. 1. 1. 0. 0. 0. 0. 0. 0. 0. 0. 0. 0. 0. 0. 0. 0. 0.
      3. 3. 3. 0. 0. 0. 0. 0. 0. 2. 2. 2. 0. 0. 0. 0. 0. 0. 2. 2. 2. 2.
      2. 2. 2. 2. 2. 0. 0. 0. 2. 2. 2. 0. 0. 0. 0. 0. 0. 0. 0. 0. 2. 2.
      2. 1. 1. 1. 0. 0. 0. 0. 0. 0. 0. 0. 0. 0. 0. 0.</_>
    <_>
      0. 0. 0. 0. 0. 0. 0. 0. 0. 0. 0. 0. 0. 0. 0. 0. 0. 0. 0. 0. 0. 0.
      0. 0. 3. 3. 3. 0. 0. 0. 0. 0. 0. 3. 3. 3. 1. 1. 1. 0. 0. 0. 1. 1.
      1. 0. 0. 0. 0. 0. 0. 0. 0. 0. 0. 0. 0. 0. 0. 0. 0. 0. 0. 0. 0. 0.
      0. 0. 0. 0. 0. 0. 0. 0. 0. 0. 0. 0. 0. 0. 0. 0. 0. 0. 0. 0. 0. 0.
      0. 0. 2. 2. 2. 0. 0. 0. 0. 0. 0. 3. 3. 3. 1. 1. 1. 0. 0. 0. 0. 0.
      0. 0. 0. 0. 0. 0. 0. 0. 0. 0. 0. 0. 0. 0. 0. 0. 0. 0. 0. 0. 0. 0.
      0. 0. 0. 0. 0. 0. 0. 0. 0. 0. 0. 0. 0. 0. 0. 3. 3. 3. 0. 0. 0. 1.
      1. 1. 36. 36. 36. 16. 16. 16. 0. 0. 0. 0. 0. 0. 0. 0. 0. 0. 0. 0.
      0. 0. 0. 0. 0. 0. 0. 0. 0. 0. 0. 0. 0. 0. 0. 0. 0. 0. 0. 0. 0. 0.
      0. 0. 0. 0. 0. 0. 0. 0. 0. 0. 0. 0. 0. 0. 1. 1. 1. 107. 107. 107.
      219. 219. 219. 48. 48. 48. 3. 3. 3. 0. 0. 0. 0. 0. 0. 0. 0. 0. 0.
      0. 0. 0. 0. 0. 0. 0. 0. 0. 0. 0. 0. 0. 0. 0. 0. 0. 0. 0. 0. 0. 0.
      0. 0. 0. 0. 0. 0. 0. 0. 0. 0. 2. 2. 2. 14. 14. 14. 202. 202. 202.
      110. 110. 110. 0. 0. 0. 1. 1. 1. 1. 1. 1. 0. 0. 0. 0. 0. 0. 0. 0.
      0. 0. 0. 0. 0. 0. 0. 0. 0. 0. 0. 0. 0. 0. 0. 0. 0. 0. 0. 0. 0. 0.
      0. 0. 0. 0. 0. 0. 0. 0. 0. 0. 0. 0. 45. 45. 45. 234. 234. 234. 49.
      49. 49. 0. 0. 0. 0. 0. 0. 0. 0. 0. 0. 0. 0. 0. 0. 0. 0. 0. 0. 0.
      0. 0. 0. 0. 0. 0. 0. 0. 0. 0. 0. 0. 0. 0. 0. 0. 0. 0. 0. 0. 0. 0.
      0. 0. 0. 0. 1. 1. 1. 0. 0. 0. 106. 106. 106. 217. 217. 217. 18.
      18. 18. 0. 0. 0. 1. 1. 1. 0. 0. 0. 0. 0. 0. 0. 0. 0. 0. 0. 0. 0.
      0. 0. 0. 0. 0. 0. 0. 0. 0. 0. 0. 0. 0. 0. 0. 0. 0. 0. 0. 0. 0. 0.
      0. 0. 0. 0. 0. 0. 0. 14. 14. 14. 221. 221. 221. 141. 141. 141. 0.
      0. 0. 0. 0. 0. 0. 0. 0. 1. 1. 1. 0. 0. 0. 0. 0. 0. 0. 0. 0. 0. 0.
      0. 0. 0. 0. 0. 0. 0. 0. 0. 0. 2. 2. 2. 0. 0. 0. 0. 0. 0. 1. 1. 1.
      0. 0. 0. 0. 0. 0. 74. 74. 74. 236. 236. 236. 67. 67. 67. 0. 0. 0.
      3. 3. 3. 0. 0. 0. 2. 2. 2. 0. 0. 0. 0. 0. 0. 0. 0. 0. 0. 0. 0. 0.
      0. 0. 0. 0. 0. 0. 0. 0. 0. 0. 0. 0. 0. 0. 0. 0. 0. 2. 2. 2. 0. 0.
      0. 4. 4. 4. 176. 176. 176. 188. 188. 188. 2. 2. 2. 0. 0. 0. 0. 0.
      0. 2. 2. 2. 0. 0. 0. 0. 0. 0. 0. 0. 0. 0. 0. 0. 0. 0. 0. 0. 0. 0.
      0. 0. 0. 0. 0. 0. 0. 0. 0. 0. 0. 0. 1. 1. 1. 1. 1. 1. 0. 0. 0. 40.
      40. 40. 221. 221. 221. 109. 109. 109. 2. 2. 2. 0. 0. 0. 1. 1. 1.
      0. 0. 0. 1. 1. 1. 0. 0. 0. 0. 0. 0. 0. 0. 0. 0. 0. 0. 0. 0. 0. 0.
      0. 0. 1. 1. 1. 0. 0. 0. 1. 1. 1. 0. 0. 0. 0. 0. 0. 0. 0. 0. 92.
      92. 92. 222. 222. 222. 26. 26. 26. 0. 0. 0. 2. 2. 2. 0. 0. 0. 2.
      2. 2. 0. 0. 0. 0. 0. 0. 0. 0. 0. 0. 0. 0. 0. 0. 0. 0. 0. 0. 0. 0.
      0. 1. 1. 1. 1. 1. 1. 1. 1. 1. 0. 0. 0. 0. 0. 0. 7. 7. 7. 167. 167.
      167. 187. 187. 187. 0. 0. 0. 0. 0. 0. 1. 1. 1. 0. 0. 0. 0. 0. 0.
      3. 3. 3. 0. 0. 0. 0. 0. 0. 0. 0. 0. 0. 0. 0. 1. 1. 1. 0. 0. 0. 0.
      0. 0. 0. 0. 0. 0. 0. 0. 0. 0. 0. 1. 1. 1. 16. 16. 16. 205. 205.
      205. 137. 137. 137. 0. 0. 0. 1. 1. 1. 0. 0. 0. 2. 2. 2. 1. 1. 1.
      0. 0. 0. 0. 0. 0. 0. 0. 0. 0. 0. 0. 0. 0. 0. 0. 0. 0. 0. 0. 0. 1.
      1. 1. 0. 0. 0. 0. 0. 0. 0. 0. 0. 1. 1. 1. 17. 17. 17. 212. 212.
      212. 96. 96. 96. 0. 0. 0. 0. 0. 0. 0. 0. 0. 0. 0. 0. 4. 4. 4. 0.
      0. 0. 0. 0. 0. 0. 0. 0. 0. 0. 0. 0. 0. 0. 0. 0. 0. 0. 0. 0. 3. 3.
      3. 0. 0. 0. 0. 0. 0. 0. 0. 0. 0. 0. 0. 11. 11. 11. 182. 182. 182.
      167. 167. 167. 11. 11. 11. 1. 1. 1. 1. 1. 1. 1. 1. 1. 0. 0. 0. 0.
      0. 0. 0. 0. 0. 0. 0. 0. 0. 0. 0. 0. 0. 0. 0. 0. 0. 0. 0. 0. 0. 0.
      0. 0. 0. 0. 0. 0. 0. 0. 0. 0. 0. 0. 0. 0. 0. 0. 59. 59. 59. 215.
      215. 215. 153. 153. 153. 13. 13. 13. 3. 3. 3. 0. 0. 0. 0. 0. 0. 1.
      1. 1. 0. 0. 0. 0. 0. 0. 0. 0. 0. 0. 0. 0. 0. 0. 0. 0. 0. 0. 0. 0.
      0. 0. 0. 0. 0. 0. 0. 0. 0. 0. 0. 0. 0. 0. 0. 0. 0. 0. 0. 23. 23.
      23. 37. 37. 37. 1. 1. 1. 0. 0. 0. 5. 5. 5. 0. 0. 0. 0. 0. 0. 0. 0.
      0. 0. 0. 0. 0. 0. 0. 0. 0. 0. 0. 0. 0. 0. 0. 0. 0. 0. 0. 0. 0. 0.
      0. 0. 0. 0. 0. 0. 0. 0. 0. 0. 0. 0. 0. 0. 0. 0. 0. 0. 1. 1. 1. 0.
      0. 0. 2. 2. 2. 0. 0. 0. 0. 0. 0. 0. 0. 0. 0. 0. 0. 0. 0. 0. 0. 0.
      0. 0. 0. 0. 0. 0. 0. 0. 0. 0. 0. 0. 0. 0. 0. 0. 0. 0. 0. 0. 0. 0.
      0. 0. 0. 0. 0. 0. 0. 0. 0. 3. 3. 3. 0. 0. 0. 0. 0. 0. 2. 2. 2. 0.
      0. 0. 1. 1. 1. 1. 1. 1. 0. 0. 0. 0. 0. 0. 0. 0. 0. 0. 0. 0.</_>
    <_>
      3. 3. 3. 0. 0. 0. 0. 0. 0. 3. 3. 3. 0. 0. 0. 0. 0. 0. 0. 0. 0. 0.
      0. 0. 0. 0. 0. 0. 0. 0. 0. 0. 0. 1. 1. 1. 1. 1. 1. 0. 0. 0. 1. 1.
      1. 0. 0. 0. 0. 0. 0. 0. 0. 0. 0. 0. 0. 0. 0. 0. 0. 0. 0. 2. 2. 2.
      0. 0. 0. 0. 0. 0. 2. 2. 2. 0. 0. 0. 2. 2. 2. 0. 0. 0. 0. 0. 0. 2.
      2. 2. 0. 0. 0. 0. 0. 0. 0. 0. 0. 2. 2. 2. 0. 0. 0. 0. 0. 0. 0. 0.
      0. 0. 0. 0. 0. 0. 0. 0. 0. 0. 2. 2. 2. 2. 2. 2. 0. 0. 0. 4. 4. 4.
      0. 0. 0. 0. 0. 0. 0. 0. 0. 9. 9. 9. 87. 87. 87. 145. 145. 145.
      197. 197. 197. 120. 120. 120. 0. 0. 0. 0. 0. 0. 1. 1. 1. 1. 1. 1.
      0. 0. 0. 0. 0. 0. 0. 0. 0. 0. 0. 0. 0. 0. 0. 1. 1. 1. 0. 0. 0. 0.
      0. 0. 0. 0. 0. 29. 29. 29. 102. 102. 102. 178. 178. 178. 214. 214.
      214. 217. 217. 217. 255. 255. 255. 158. 158. 158. 2. 2. 2. 0. 0.
      0. 0. 0. 0. 0. 0. 0. 0. 0. 0. 0. 0. 0. 0. 0. 0. 0. 0. 0. 0. 0. 0.
      2. 2. 2. 0. 0. 0. 3. 3. 3. 0. 0. 0. 74. 74. 74. 255. 255. 255.
      250. 250. 250. 118. 118. 118. 31. 31. 31. 163. 163. 163. 180. 180.
      180. 6. 6. 6. 1. 1. 1. 1. 1. 1. 1. 1. 1. 0. 0. 0. 0. 0. 0. 0. 0.
      0. 0. 0. 0. 1. 1. 1. 0. 0. 0. 1. 1. 1. 0. 0. 0. 2. 2. 2. 12. 12.
      12. 60. 60. 60. 30. 30. 30. 2. 2. 2. 2. 2. 2. 136. 136. 136. 204.
      204. 204. 17. 17. 17. 0. 0. 0. 0. 0. 0. 0. 0. 0. 0. 0. 0. 0. 0. 0.
      0. 0. 0. 0. 0. 0. 0. 0. 0. 0. 0. 0. 3. 3. 3. 2. 2. 2. 0. 0. 0. 0.
      0. 0. 0. 0. 0. 0. 0. 0. 0. 0. 0. 3. 3. 3. 136. 136. 136. 204. 204.
      204. 15. 15. 15. 0. 0. 0. 0. 0. 0. 3. 3. 3. 0. 0. 0. 0. 0. 0. 0.
      0. 0. 0. 0. 0. 1. 1. 1. 2. 2. 2. 0. 0. 0. 0. 0. 0. 1. 1. 1. 1. 1.
      1. 2. 2. 2. 0. 0. 0. 1. 1. 1. 0. 0. 0. 147. 147. 147. 155. 155.
      155. 0. 0. 0. 0. 0. 0. 1. 1. 1. 0. 0. 0. 0. 0. 0. 0. 0. 0. 0. 0.
      0. 0. 0. 0. 0. 0. 0. 1. 1. 1. 1. 1. 1. 0. 0. 0. 3. 3. 3. 0. 0. 0.
      0. 0. 0. 1. 1. 1. 0. 0. 0. 3. 3. 3. 146. 146. 146. 141. 141. 141.
      0. 0. 0. 2. 2. 2. 0. 0. 0. 1. 1. 1. 0. 0. 0. 0. 0. 0. 0. 0. 0. 0.
      0. 0. 2. 2. 2. 0. 0. 0. 2. 2. 2. 0. 0. 0. 0. 0. 0. 4. 4. 4. 0. 0.
      0. 1. 1. 1. 0. 0. 0. 0. 0. 0. 142. 142. 142. 130. 130. 130. 1. 1.
      1. 0. 0. 0. 2. 2. 2. 0. 0. 0. 0. 0. 0. 1. 1. 1. 2. 2. 2. 4. 4. 4.
      1. 1. 1. 0. 0. 0. 1. 1. 1. 2. 2. 2. 0. 0. 0. 0. 0. 0. 0. 0. 0. 0.
      0. 0. 3. 3. 3. 0. 0. 0. 172. 172. 172. 90. 90. 90. 0. 0. 0. 0. 0.
      0. 0. 0. 0. 1. 1. 1. 1. 1. 1. 0. 0. 0. 0. 0. 0. 0. 0. 0. 1. 1. 1.
      0. 0. 0. 0. 0. 0. 1. 1. 1. 2. 2. 2. 0. 0. 0. 3. 3. 3. 1. 1. 1. 0.
      0. 0. 5. 5. 5. 160. 160. 160. 86. 86. 86. 0. 0. 0. 3. 3. 3. 0. 0.
      0. 0. 0. 0. 0. 0. 0. 1. 1. 1. 0. 0. 0. 5. 5. 5. 1. 1. 1. 1. 1. 1.
      0. 0. 0. 0. 0. 0. 0. 0. 0. 2. 2. 2. 0. 0. 0. 0. 0. 0. 0. 0. 0. 6.
      6. 6. 184. 184. 184. 82. 82. 82. 1. 1. 1. 0. 0. 0. 13. 13. 13. 26.
      26. 26. 19. 19. 19. 0. 0. 0. 0. 0. 0. 0. 0. 0. 0. 0. 0. 2. 2. 2.
      0. 0. 0. 2. 2. 2. 0. 0. 0. 0. 0. 0. 3. 3. 3. 0. 0. 0. 2. 2. 2. 0.
      0. 0. 163. 163. 163. 172. 172. 172. 141. 141. 141. 98. 98. 98.
      173. 173. 173. 216. 216. 216. 209. 209. 209. 118. 118. 118. 2. 2.
      2. 0. 0. 0. 0. 0. 0. 2. 2. 2. 0. 0. 0. 1. 1. 1. 15. 15. 15. 87.
      87. 87. 100. 100. 100. 91. 91. 91. 153. 153. 153. 167. 167. 167.
      235. 235. 235. 254. 254. 254. 223. 223. 223. 237. 237. 237. 227.
      227. 227. 255. 255. 255. 197. 197. 197. 204. 204. 204. 23. 23. 23.
      1. 1. 1. 1. 1. 1. 0. 0. 0. 0. 0. 0. 0. 0. 0. 37. 37. 37. 244. 244.
      244. 255. 255. 255. 255. 255. 255. 237. 237. 237. 205. 205. 205.
      205. 205. 205. 153. 153. 153. 40. 40. 40. 64. 64. 64. 70. 70. 70.
      48. 48. 48. 5. 5. 5. 32. 32. 32. 1. 1. 1. 1. 1. 1. 0. 0. 0. 5. 5.
      5. 0. 0. 0. 0. 0. 0. 5. 5. 5. 79. 79. 79. 110. 110. 110. 110. 110.
      110. 59. 59. 59. 16. 16. 16. 14. 14. 14. 0. 0. 0. 1. 1. 1. 0. 0.
      0. 0. 0. 0. 2. 2. 2. 0. 0. 0. 0. 0. 0. 0. 0. 0. 0. 0. 0. 1. 1. 1.
      0. 0. 0. 0. 0. 0. 2. 2. 2. 0. 0. 0. 4. 4. 4. 0. 0. 0. 0. 0. 0. 5.
      5. 5. 0. 0. 0. 3. 3. 3. 0. 0. 0. 0. 0. 0. 0. 0. 0. 0. 0. 0. 0. 0.
      0. 0. 0. 0. 0. 0. 0. 0. 0. 0. 0. 0. 0. 0. 0. 0. 2. 2. 2. 4. 4. 4.
      0. 0. 0. 1. 1. 1. 1. 1. 1. 0. 0. 0. 0. 0. 0. 0. 0. 0. 0. 0. 0. 0.
      0. 0. 1. 1. 1. 0. 0. 0. 0. 0. 0. 2. 2. 2. 0. 0. 0. 0. 0. 0. 0. 0.
      0. 0. 0. 0. 0. 0. 0. 0. 0. 0. 1. 1. 1. 0. 0. 0. 0. 0. 0. 0. 0. 0.
      0. 0. 0. 0. 0. 0. 1. 1. 1. 2. 2. 2. 4. 4. 4. 0. 0. 0. 3. 3. 3. 0.
      0. 0. 1. 1. 1. 0. 0. 0. 0. 0. 0. 0. 0. 0. 0. 0. 0. 0. 0. 0. 0. 0.
      0.</_>
    <_>
      0. 0. 0. 0. 0. 0. 0. 0. 0. 0. 0. 0. 0. 0. 0. 0. 0. 0. 0. 0. 0. 0.
      0. 0. 0. 0. 0. 1. 1. 1. 2. 2. 2. 0. 0. 0. 1. 1. 1. 3. 3. 3. 0. 0.
      0. 1. 1. 1. 0. 0. 0. 0. 0. 0. 0. 0. 0. 0. 0. 0. 0. 0. 0. 0. 0. 0.
      0. 0. 0. 0. 0. 0. 0. 0. 0. 0. 0. 0. 0. 0. 0. 0. 0. 0. 1. 1. 1. 1.
      1. 1. 0. 0. 0. 1. 1. 1. 0. 0. 0. 0. 0. 0. 1. 1. 1. 1. 1. 1. 0. 0.
      0. 0. 0. 0. 0. 0. 0. 0. 0. 0. 0. 0. 0. 0. 0. 0. 0. 0. 0. 0. 0. 0.
      0. 0. 0. 0. 0. 0. 0. 0. 0. 0. 0. 0. 0. 0. 0. 0. 0. 0. 0. 0. 0. 1.
      1. 1. 1. 1. 1. 0. 0. 0. 4. 4. 4. 0. 0. 0. 0. 0. 0. 0. 0. 0. 0. 0.
      0. 0. 0. 0. 0. 0. 0. 0. 0. 0. 0. 0. 0. 0. 0. 0. 0. 0. 0. 0. 0. 0.
      0. 0. 0. 0. 0. 0. 0. 0. 0. 3. 3. 3. 80. 80. 80. 44. 44. 44. 1. 1.
      1. 0. 0. 0. 0. 0. 0. 1. 1. 1. 0. 0. 0. 0. 0. 0. 0. 0. 0. 0. 0. 0.
      0. 0. 0. 0. 0. 0. 0. 0. 0. 0. 0. 0. 0. 0. 0. 0. 0. 0. 0. 0. 0. 0.
      0. 0. 0. 0. 0. 20. 20. 20. 235. 235. 235. 124. 124. 124. 0. 0. 0.
      1. 1. 1. 0. 0. 0. 3. 3. 3. 0. 0. 0. 0. 0. 0. 0. 0. 0. 0. 0. 0. 0.
      0. 0. 0. 0. 0. 0. 0. 0. 0. 0. 0. 0. 0. 0. 0. 0. 0. 0. 0. 0. 0. 0.
      0. 2. 2. 2. 41. 41. 41. 255. 255. 255. 121. 121. 121. 3. 3. 3. 0.
      0. 0. 4. 4. 4. 0. 0. 0. 0. 0. 0. 0. 0. 0. 0. 0. 0. 0. 0. 0. 0. 0.
      0. 0. 0. 0. 0. 0. 0. 0. 0. 0. 0. 0. 0. 0. 0. 0. 0. 0. 0. 0. 0. 0.
      0. 0. 0. 57. 57. 57. 252. 252. 252. 120. 120. 120. 0. 0. 0. 0. 0.
      0. 0. 0. 0. 2. 2. 2. 0. 0. 0. 0. 0. 0. 0. 0. 0. 0. 0. 0. 0. 0. 0.
      0. 0. 0. 0. 0. 0. 0. 0. 0. 0. 0. 0. 0. 0. 0. 0. 0. 0. 0. 0. 0. 0.
      0. 0. 157. 157. 157. 254. 254. 254. 105. 105. 105. 0. 0. 0. 2. 2.
      2. 0. 0. 0. 0. 0. 0. 0. 0. 0. 0. 0. 0. 0. 0. 0. 0. 0. 0. 1. 1. 1.
      0. 0. 0. 0. 0. 0. 1. 1. 1. 0. 0. 0. 0. 0. 0. 1. 1. 1. 0. 0. 0. 81.
      81. 81. 209. 209. 209. 226. 226. 226. 99. 99. 99. 1. 1. 1. 0. 0.
      0. 0. 0. 0. 0. 0. 0. 0. 0. 0. 0. 0. 0. 0. 0. 0. 0. 0. 0. 0. 0. 0.
      0. 0. 0. 0. 0. 0. 0. 0. 0. 1. 1. 1. 1. 1. 1. 0. 0. 0. 90. 90. 90.
      215. 215. 215. 89. 89. 89. 162. 162. 162. 130. 130. 130. 0. 0. 0.
      4. 4. 4. 0. 0. 0. 3. 3. 3. 0. 0. 0. 0. 0. 0. 0. 0. 0. 0. 0. 0. 1.
      1. 1. 0. 0. 0. 0. 0. 0. 0. 0. 0. 0. 0. 0. 4. 4. 4. 0. 0. 0. 45.
      45. 45. 26. 26. 26. 0. 0. 0. 202. 202. 202. 123. 123. 123. 0. 0.
      0. 1. 1. 1. 2. 2. 2. 0. 0. 0. 0. 0. 0. 0. 0. 0. 0. 0. 0. 0. 0. 0.
      0. 0. 0. 2. 2. 2. 0. 0. 0. 0. 0. 0. 1. 1. 1. 1. 1. 1. 0. 0. 0. 0.
      0. 0. 0. 0. 0. 6. 6. 6. 224. 224. 224. 122. 122. 122. 2. 2. 2. 2.
      2. 2. 0. 0. 0. 4. 4. 4. 0. 0. 0. 0. 0. 0. 0. 0. 0. 0. 0. 0. 0. 0.
      0. 0. 0. 0. 2. 2. 2. 0. 0. 0. 3. 3. 3. 0. 0. 0. 0. 0. 0. 5. 5. 5.
      0. 0. 0. 6. 6. 6. 228. 228. 228. 123. 123. 123. 1. 1. 1. 0. 0. 0.
      0. 0. 0. 0. 0. 0. 0. 0. 0. 0. 0. 0. 0. 0. 0. 0. 0. 0. 1. 1. 1. 0.
      0. 0. 1. 1. 1. 0. 0. 0. 0. 0. 0. 0. 0. 0. 1. 1. 1. 0. 0. 0. 3. 3.
      3. 6. 6. 6. 203. 203. 203. 123. 123. 123. 0. 0. 0. 2. 2. 2. 3. 3.
      3. 1. 1. 1. 0. 0. 0. 0. 0. 0. 0. 0. 0. 0. 0. 0. 0. 0. 0. 4. 4. 4.
      0. 0. 0. 0. 0. 0. 1. 1. 1. 0. 0. 0. 1. 1. 1. 2. 2. 2. 0. 0. 0. 0.
      0. 0. 152. 152. 152. 136. 136. 136. 2. 2. 2. 0. 0. 0. 0. 0. 0. 0.
      0. 0. 0. 0. 0. 0. 0. 0. 0. 0. 0. 0. 0. 0. 0. 0. 0. 0. 0. 0. 1. 1.
      1. 1. 1. 1. 0. 0. 0. 0. 0. 0. 0. 0. 0. 0. 0. 0. 1. 1. 1. 0. 0. 0.
      89. 89. 89. 232. 232. 232. 21. 21. 21. 0. 0. 0. 2. 2. 2. 0. 0. 0.
      0. 0. 0. 0. 0. 0. 0. 0. 0. 0. 0. 0. 0. 0. 0. 0. 0. 0. 0. 0. 0. 0.
      0. 0. 0. 0. 0. 0. 0. 0. 0. 0. 0. 0. 0. 0. 0. 0. 0. 0. 0. 0. 54.
      54. 54. 230. 230. 230. 55. 55. 55. 1. 1. 1. 1. 1. 1. 0. 0. 0. 0.
      0. 0. 0. 0. 0. 0. 0. 0. 0. 0. 0. 0. 0. 0. 0. 0. 0. 0. 0. 0. 0. 0.
      0. 0. 0. 0. 0. 0. 0. 0. 0. 0. 0. 0. 0. 1. 1. 1. 0. 0. 0. 4. 4. 4.
      151. 151. 151. 70. 70. 70. 2. 2. 2. 0. 0. 0. 0. 0. 0. 0. 0. 0. 0.
      0. 0. 0. 0. 0. 0. 0. 0. 0. 0. 0. 0. 0. 0. 0. 0. 0. 0. 0. 0. 0. 0.
      0. 0. 0. 0. 0. 0. 0. 0. 0. 0. 4. 4. 4. 0. 0. 0. 0. 0. 0. 2. 2. 2.
      0. 0. 0. 1. 1. 1. 2. 2. 2. 0. 0. 0. 0. 0. 0. 0. 0. 0. 0. 0. 0. 0.
      0. 0. 0. 0. 0. 0. 0. 0. 0. 0. 0. 0. 0. 0. 0. 0. 0. 0. 0. 0. 0. 0.
      0. 0. 0. 0. 0. 0. 0. 1. 1. 1. 0. 0. 0. 0. 0. 0. 0. 0. 0. 0. 0. 0.
      2. 2. 2. 0. 0. 0. 0. 0. 0. 0. 0. 0. 0. 0. 0. 0. 0. 0.</_>
    <_>
      0. 0. 0. 0. 0. 0. 3. 3. 3. 0. 0. 0. 0. 0. 0. 0. 0. 0. 2. 2. 2. 0.
      0. 0. 1. 1. 1. 0. 0. 0. 0. 0. 0. 1. 1. 1. 0. 0. 0. 1. 1. 1. 0. 0.
      0. 0. 0. 0. 0. 0. 0. 0. 0. 0. 2. 2. 2. 0. 0. 0. 0. 0. 0. 3. 3. 3.
      0. 0. 0. 0. 0. 0. 2. 2. 2. 0. 0. 0. 0. 0. 0. 1. 1. 1. 0. 0. 0. 2.
      2. 2. 0. 0. 0. 1. 1. 1. 1. 1. 1. 3. 3. 3. 0. 0. 0. 1. 1. 1. 2. 2.
      2. 0. 0. 0. 0. 0. 0. 0. 0. 0. 0. 0. 0. 0. 0. 0. 6. 6. 6. 0. 0. 0.
      0. 0. 0. 3. 3. 3. 0. 0. 0. 1. 1. 1. 1. 1. 1. 0. 0. 0. 0. 0. 0. 2.
      2. 2. 0. 0. 0. 21. 21. 21. 11. 11. 11. 0. 0. 0. 1. 1. 1. 0. 0. 0.
      1. 1. 1. 0. 0. 0. 1. 1. 1. 3. 3. 3. 0. 0. 0. 0. 0. 0. 0. 0. 0. 3.
      3. 3. 0. 0. 0. 0. 0. 0. 0. 0. 0. 0. 0. 0. 2. 2. 2. 10. 10. 10.
      117. 117. 117. 235. 235. 235. 108. 108. 108. 0. 0. 0. 0. 0. 0. 0.
      0. 0. 3. 3. 3. 0. 0. 0. 0. 0. 0. 0. 0. 0. 0. 0. 0. 1. 1. 1. 1. 1.
      1. 0. 0. 0. 1. 1. 1. 1. 1. 1. 0. 0. 0. 0. 0. 0. 84. 84. 84. 198.
      198. 198. 254. 254. 254. 254. 254. 254. 124. 124. 124. 36. 36. 36.
      5. 5. 5. 0. 0. 0. 0. 0. 0. 0. 0. 0. 2. 2. 2. 1. 1. 1. 0. 0. 0. 3.
      3. 3. 0. 0. 0. 0. 0. 0. 1. 1. 1. 0. 0. 0. 33. 33. 33. 155. 155.
      155. 241. 241. 241. 196. 196. 196. 126. 126. 126. 251. 251. 251.
      255. 255. 255. 198. 198. 198. 21. 21. 21. 3. 3. 3. 0. 0. 0. 1. 1.
      1. 0. 0. 0. 0. 0. 0. 0. 0. 0. 0. 0. 0. 0. 0. 0. 4. 4. 4. 5. 5. 5.
      122. 122. 122. 227. 227. 227. 230. 230. 230. 108. 108. 108. 11.
      11. 11. 138. 138. 138. 255. 255. 255. 209. 209. 209. 75. 75. 75.
      19. 19. 19. 3. 3. 3. 0. 0. 0. 2. 2. 2. 0. 0. 0. 2. 2. 2. 0. 0. 0.
      1. 1. 1. 0. 0. 0. 44. 44. 44. 200. 200. 200. 248. 248. 248. 152.
      152. 152. 47. 47. 47. 0. 0. 0. 1. 1. 1. 218. 218. 218. 245. 245.
      245. 62. 62. 62. 0. 0. 0. 1. 1. 1. 0. 0. 0. 0. 0. 0. 1. 1. 1. 0.
      0. 0. 0. 0. 0. 1. 1. 1. 0. 0. 0. 50. 50. 50. 206. 206. 206. 216.
      216. 216. 95. 95. 95. 0. 0. 0. 0. 0. 0. 1. 1. 1. 114. 114. 114.
      252. 252. 252. 147. 147. 147. 0. 0. 0. 0. 0. 0. 0. 0. 0. 0. 0. 0.
      0. 0. 0. 0. 0. 0. 3. 3. 3. 0. 0. 0. 0. 0. 0. 17. 17. 17. 182. 182.
      182. 169. 169. 169. 30. 30. 30. 1. 1. 1. 2. 2. 2. 0. 0. 0. 18. 18.
      18. 202. 202. 202. 235. 235. 235. 24. 24. 24. 2. 2. 2. 0. 0. 0. 0.
      0. 0. 0. 0. 0. 0. 0. 0. 0. 0. 0. 0. 0. 0. 0. 0. 0. 2. 2. 2. 34.
      34. 34. 83. 83. 83. 8. 8. 8. 0. 0. 0. 0. 0. 0. 0. 0. 0. 0. 0. 0.
      108. 108. 108. 255. 255. 255. 102. 102. 102. 0. 0. 0. 0. 0. 0. 1.
      1. 1. 0. 0. 0. 0. 0. 0. 0. 0. 0. 0. 0. 0. 0. 0. 0. 1. 1. 1. 2. 2.
      2. 0. 0. 0. 2. 2. 2. 1. 1. 1. 1. 1. 1. 0. 0. 0. 0. 0. 0. 2. 2. 2.
      207. 207. 207. 213. 213. 213. 14. 14. 14. 0. 0. 0. 3. 3. 3. 0. 0.
      0. 0. 0. 0. 0. 0. 0. 0. 0. 0. 0. 0. 0. 0. 0. 0. 2. 2. 2. 0. 0. 0.
      2. 2. 2. 0. 0. 0. 0. 0. 0. 1. 1. 1. 0. 0. 0. 0. 0. 0. 24. 24. 24.
      224. 224. 224. 152. 152. 152. 0. 0. 0. 0. 0. 0. 0. 0. 0. 3. 3. 3.
      0. 0. 0. 0. 0. 0. 0. 0. 0. 0. 0. 0. 0. 0. 0. 1. 1. 1. 0. 0. 0. 0.
      0. 0. 1. 1. 1. 1. 1. 1. 0. 0. 0. 0. 0. 0. 0. 0. 0. 109. 109. 109.
      255. 255. 255. 100. 100. 100. 0. 0. 0. 9. 9. 9. 0. 0. 0. 0. 0. 0.
      0. 0. 0. 0. 0. 0. 0. 0. 0. 0. 0. 0. 1. 1. 1. 2. 2. 2. 0. 0. 0. 3.
      3. 3. 2. 2. 2. 2. 2. 2. 0. 0. 0. 0. 0. 0. 1. 1. 1. 152. 152. 152.
      232. 232. 232. 92. 92. 92. 113. 113. 113. 104. 104. 104. 2. 2. 2.
      0. 0. 0. 0. 0. 0. 0. 0. 0. 0. 0. 0. 0. 0. 0. 0. 0. 0. 0. 0. 0. 2.
      2. 2. 0. 0. 0. 112. 112. 112. 199. 199. 199. 136. 136. 136. 124.
      124. 124. 132. 132. 132. 228. 228. 228. 255. 255. 255. 243. 243.
      243. 184. 184. 184. 63. 63. 63. 0. 0. 0. 0. 0. 0. 0. 0. 0. 0. 0.
      0. 0. 0. 0. 0. 0. 0. 0. 0. 0. 3. 3. 3. 0. 0. 0. 1. 1. 1. 65. 65.
      65. 181. 181. 181. 253. 253. 253. 255. 255. 255. 255. 255. 255.
      208. 208. 208. 153. 153. 153. 89. 89. 89. 25. 25. 25. 0. 0. 0. 1.
      1. 1. 0. 0. 0. 0. 0. 0. 0. 0. 0. 0. 0. 0. 0. 0. 0. 2. 2. 2. 0. 0.
      0. 1. 1. 1. 0. 0. 0. 0. 0. 0. 10. 10. 10. 30. 30. 30. 36. 36. 36.
      34. 34. 34. 17. 17. 17. 5. 5. 5. 0. 0. 0. 0. 0. 0. 0. 0. 0. 2. 2.
      2. 0. 0. 0. 0. 0. 0. 0. 0. 0. 0. 0. 0. 0. 0. 0. 0. 0. 0. 0. 0. 0.
      2. 2. 2. 3. 3. 3. 0. 0. 0. 0. 0. 0. 2. 2. 2. 0. 0. 0. 0. 0. 0. 0.
      0. 0. 0. 0. 0. 0. 0. 0. 2. 2. 2. 1. 1. 1. 0. 0. 0. 2. 2. 2. 0. 0.
      0. 0. 0. 0. 0. 0. 0. 0. 0. 0. 1. 1. 1. 0. 0. 0. 0. 0. 0. 0. 0. 0.
      0. 0. 0. 1. 1. 1. 0. 0. 0. 0. 0. 0. 0. 0. 0. 2. 2. 2. 0. 0. 0. 0.
      0. 0. 1. 1. 1. 0. 0. 0. 0. 0. 0. 1. 1. 1. 0. 0. 0. 0. 0. 0. 0. 0.
      0. 0. 0. 0.</_>
    <_>
      0. 0. 0. 0. 0. 0. 0. 0. 0. 0. 0. 0. 0. 0. 0. 0. 0. 0. 0. 0. 0. 0.
      0. 0. 0. 0. 0. 0. 0. 0. 0. 0. 0. 2. 2. 2. 0. 0. 0. 0. 0. 0. 1. 1.
      1. 0. 0. 0. 0. 0. 0. 0. 0. 0. 0. 0. 0. 0. 0. 0. 0. 0. 0. 0. 0. 0.
      0. 0. 0. 0. 0. 0. 0. 0. 0. 0. 0. 0. 0. 0. 0. 0. 0. 0. 1. 1. 1. 0.
      0. 0. 3. 3. 3. 0. 0. 0. 0. 0. 0. 4. 4. 4. 0. 0. 0. 0. 0. 0. 0. 0.
      0. 0. 0. 0. 0. 0. 0. 0. 0. 0. 0. 0. 0. 0. 0. 0. 0. 0. 0. 0. 0. 0.
      0. 0. 0. 0. 0. 0. 0. 0. 0. 0. 0. 0. 0. 0. 0. 1. 1. 1. 0. 0. 0. 0.
      0. 0. 0. 0. 0. 0. 0. 0. 0. 0. 0. 1. 1. 1. 0. 0. 0. 0. 0. 0. 0. 0.
      0. 0. 0. 0. 0. 0. 0. 0. 0. 0. 0. 0. 0. 0. 0. 0. 0. 0. 0. 0. 0. 0.
      0. 0. 0. 0. 0. 0. 1. 1. 1. 0. 0. 0. 0. 0. 0. 68. 68. 68. 108. 108.
      108. 14. 14. 14. 0. 0. 0. 1. 1. 1. 0. 0. 0. 0. 0. 0. 0. 0. 0. 0.
      0. 0. 0. 0. 0. 0. 0. 0. 0. 0. 0. 0. 0. 0. 0. 0. 0. 0. 0. 0. 0. 0.
      0. 0. 0. 0. 1. 1. 1. 0. 0. 0. 1. 1. 1. 163. 163. 163. 251. 251.
      251. 142. 142. 142. 3. 3. 3. 1. 1. 1. 0. 0. 0. 0. 0. 0. 0. 0. 0.
      0. 0. 0. 0. 0. 0. 0. 0. 0. 0. 0. 0. 0. 0. 0. 0. 0. 0. 0. 0. 0. 0.
      0. 0. 0. 0. 0. 0. 0. 0. 1. 1. 1. 12. 12. 12. 188. 188. 188. 255.
      255. 255. 144. 144. 144. 1. 1. 1. 0. 0. 0. 0. 0. 0. 0. 0. 0. 0. 0.
      0. 0. 0. 0. 0. 0. 0. 0. 0. 0. 0. 0. 0. 0. 0. 0. 0. 0. 0. 0. 0. 0.
      0. 0. 0. 0. 0. 0. 0. 0. 0. 2. 2. 2. 62. 62. 62. 242. 242. 242.
      245. 245. 245. 73. 73. 73. 2. 2. 2. 0. 0. 0. 0. 0. 0. 0. 0. 0. 0.
      0. 0. 0. 0. 0. 0. 0. 0. 0. 0. 0. 0. 0. 0. 0. 0. 0. 0. 0. 0. 0. 0.
      0. 0. 0. 0. 0. 0. 0. 0. 0. 0. 2. 2. 2. 166. 166. 166. 255. 255.
      255. 233. 233. 233. 33. 33. 33. 0. 0. 0. 0. 0. 0. 0. 0. 0. 0. 0.
      0. 0. 0. 0. 0. 0. 0. 0. 0. 0. 0. 0. 0. 3. 3. 3. 1. 1. 1. 0. 0. 0.
      2. 2. 2. 0. 0. 0. 0. 0. 0. 1. 1. 1. 84. 84. 84. 246. 246. 246.
      253. 253. 253. 156. 156. 156. 1. 1. 1. 0. 0. 0. 4. 4. 4. 0. 0. 0.
      0. 0. 0. 0. 0. 0. 0. 0. 0. 0. 0. 0. 2. 2. 2. 0. 0. 0. 0. 0. 0. 0.
      0. 0. 0. 0. 0. 2. 2. 2. 1. 1. 1. 67. 67. 67. 226. 226. 226. 255.
      255. 255. 255. 255. 255. 67. 67. 67. 1. 1. 1. 0. 0. 0. 0. 0. 0. 0.
      0. 0. 0. 0. 0. 0. 0. 0. 0. 0. 0. 1. 1. 1. 1. 1. 1. 0. 0. 0. 3. 3.
      3. 5. 5. 5. 0. 0. 0. 0. 0. 0. 71. 71. 71. 231. 231. 231. 255. 255.
      255. 252. 252. 252. 254. 254. 254. 67. 67. 67. 0. 0. 0. 5. 5. 5.
      0. 0. 0. 0. 0. 0. 0. 0. 0. 0. 0. 0. 0. 0. 0. 0. 0. 0. 0. 0. 0. 0.
      0. 0. 2. 2. 2. 0. 0. 0. 5. 5. 5. 55. 55. 55. 216. 216. 216. 255.
      255. 255. 191. 191. 191. 229. 229. 229. 255. 255. 255. 72. 72. 72.
      2. 2. 2. 0. 0. 0. 0. 0. 0. 0. 0. 0. 0. 0. 0. 0. 0. 0. 0. 0. 0. 1.
      1. 1. 1. 1. 1. 3. 3. 3. 0. 0. 0. 1. 1. 1. 8. 8. 8. 175. 175. 175.
      255. 255. 255. 207. 207. 207. 35. 35. 35. 151. 151. 151. 255. 255.
      255. 66. 66. 66. 1. 1. 1. 1. 1. 1. 0. 0. 0. 0. 0. 0. 0. 0. 0. 0.
      0. 0. 0. 0. 0. 1. 1. 1. 0. 0. 0. 0. 0. 0. 3. 3. 3. 0. 0. 0. 2. 2.
      2. 115. 115. 115. 184. 184. 184. 58. 58. 58. 0. 0. 0. 149. 149.
      149. 255. 255. 255. 73. 73. 73. 1. 1. 1. 0. 0. 0. 2. 2. 2. 0. 0.
      0. 0. 0. 0. 0. 0. 0. 0. 0. 0. 0. 0. 0. 1. 1. 1. 1. 1. 1. 2. 2. 2.
      0. 0. 0. 0. 0. 0. 4. 4. 4. 14. 14. 14. 0. 0. 0. 0. 0. 0. 169. 169.
      169. 252. 252. 252. 68. 68. 68. 0. 0. 0. 0. 0. 0. 0. 0. 0. 0. 0.
      0. 0. 0. 0. 0. 0. 0. 0. 0. 0. 0. 0. 0. 0. 0. 0. 0. 0. 0. 0. 0. 0.
      0. 0. 0. 1. 1. 1. 0. 0. 0. 0. 0. 0. 1. 1. 1. 0. 0. 0. 133. 133.
      133. 255. 255. 255. 72. 72. 72. 1. 1. 1. 0. 0. 0. 0. 0. 0. 0. 0.
      0. 0. 0. 0. 0. 0. 0. 0. 0. 0. 0. 0. 0. 0. 0. 0. 0. 0. 0. 0. 0. 0.
      0. 0. 0. 0. 0. 0. 0. 0. 0. 0. 0. 0. 1. 1. 1. 1. 1. 1. 136. 136.
      136. 254. 254. 254. 55. 55. 55. 0. 0. 0. 4. 4. 4. 0. 0. 0. 0. 0.
      0. 0. 0. 0. 0. 0. 0. 0. 0. 0. 0. 0. 0. 0. 0. 0. 0. 0. 0. 0. 0. 0.
      0. 0. 0. 0. 0. 0. 0. 0. 0. 0. 0. 0. 0. 0. 0. 0. 0. 0. 46. 46. 46.
      130. 130. 130. 18. 18. 18. 6. 6. 6. 0. 0. 0. 3. 3. 3. 0. 0. 0. 0.
      0. 0. 0. 0. 0. 0. 0. 0. 0. 0. 0. 0. 0. 0. 0. 0. 0. 0. 0. 0. 0. 0.
      0. 0. 0. 0. 0. 0. 0. 0. 0. 0. 0. 0. 0. 0. 0. 0. 0. 0. 0. 1. 1. 1.
      0. 0. 0. 0. 0. 0. 0. 0. 0. 0. 0. 0. 0. 0. 0. 0. 0. 0. 0. 0. 0. 0.
      0. 0. 0. 0. 0. 0. 0. 0. 0. 0. 0. 0. 0. 0. 0. 0. 0. 0. 0. 0. 0. 0.
      0. 0. 0. 0. 0. 0. 0. 2. 2. 2. 0. 0. 0. 0. 0. 0. 1. 1. 1. 4. 4. 4.
      0. 0. 0. 0. 0. 0. 0. 0. 0. 0. 0. 0. 0. 0. 0. 0. 0. 0.</_>
    <_>
      0. 0. 0. 0. 0. 0. 4. 4. 4. 0. 0. 0. 1. 1. 1. 0. 0. 0. 1. 1. 1. 0.
      0. 0. 0. 0. 0. 0. 0. 0. 0. 0. 0. 1. 1. 1. 3. 3. 3. 0. 0. 0. 2. 2.
      2. 0. 0. 0. 0. 0. 0. 0. 0. 0. 0. 0. 0. 0. 0. 0. 4. 4. 4. 0. 0. 0.
      0. 0. 0. 0. 0. 0. 0. 0. 0. 0. 0. 0. 1. 1. 1. 2. 2. 2. 0. 0. 0. 5.
      5. 5. 2. 2. 2. 0. 0. 0. 3. 3. 3. 0. 0. 0. 0. 0. 0. 1. 1. 1. 0. 0.
      0. 0. 0. 0. 0. 0. 0. 0. 0. 0. 1. 1. 1. 0. 0. 0. 3. 3. 3. 0. 0. 0.
      3. 3. 3. 2. 2. 2. 0. 0. 0. 0. 0. 0. 1. 1. 1. 62. 62. 62. 195. 195.
      195. 73. 73. 73. 1. 1. 1. 2. 2. 2. 2. 2. 2. 0. 0. 0. 0. 0. 0. 0.
      0. 0. 0. 0. 0. 0. 0. 0. 0. 0. 0. 1. 1. 1. 0. 0. 0. 1. 1. 1. 0. 0.
      0. 0. 0. 0. 1. 1. 1. 2. 2. 2. 5. 5. 5. 185. 185. 185. 255. 255.
      255. 253. 253. 253. 60. 60. 60. 0. 0. 0. 2. 2. 2. 0. 0. 0. 0. 0.
      0. 0. 0. 0. 0. 0. 0. 0. 0. 0. 0. 0. 0. 2. 2. 2. 2. 2. 2. 0. 0. 0.
      0. 0. 0. 1. 1. 1. 0. 0. 0. 0. 0. 0. 4. 4. 4. 149. 149. 149. 253.
      253. 253. 255. 255. 255. 104. 104. 104. 2. 2. 2. 0. 0. 0. 0. 0. 0.
      0. 0. 0. 0. 0. 0. 0. 0. 0. 0. 0. 0. 0. 0. 0. 1. 1. 1. 1. 1. 1. 0.
      0. 0. 44. 44. 44. 141. 141. 141. 29. 29. 29. 70. 70. 70. 198. 198.
      198. 253. 253. 253. 255. 255. 255. 252. 252. 252. 76. 76. 76. 2.
      2. 2. 0. 0. 0. 4. 4. 4. 0. 0. 0. 0. 0. 0. 0. 0. 0. 0. 0. 0. 1. 1.
      1. 0. 0. 0. 0. 0. 0. 2. 2. 2. 104. 104. 104. 252. 252. 252. 211.
      211. 211. 240. 240. 240. 255. 255. 255. 252. 252. 252. 250. 250.
      250. 255. 255. 255. 76. 76. 76. 0. 0. 0. 2. 2. 2. 0. 0. 0. 0. 0.
      0. 0. 0. 0. 0. 0. 0. 0. 0. 0. 0. 0. 0. 0. 0. 0. 0. 0. 0. 0. 0. 0.
      152. 152. 152. 255. 255. 255. 255. 255. 255. 254. 254. 254. 254.
      254. 254. 255. 255. 255. 253. 253. 253. 255. 255. 255. 128. 128.
      128. 2. 2. 2. 0. 0. 0. 0. 0. 0. 0. 0. 0. 0. 0. 0. 0. 0. 0. 0. 0.
      0. 2. 2. 2. 0. 0. 0. 1. 1. 1. 0. 0. 0. 140. 140. 140. 255. 255.
      255. 250. 250. 250. 238. 238. 238. 187. 187. 187. 214. 214. 214.
      255. 255. 255. 255. 255. 255. 119. 119. 119. 0. 0. 0. 0. 0. 0. 1.
      1. 1. 0. 0. 0. 0. 0. 0. 0. 0. 0. 0. 0. 0. 0. 0. 0. 2. 2. 2. 0. 0.
      0. 0. 0. 0. 42. 42. 42. 203. 203. 203. 160. 160. 160. 71. 71. 71.
      10. 10. 10. 80. 80. 80. 238. 238. 238. 253. 253. 253. 181. 181.
      181. 26. 26. 26. 1. 1. 1. 0. 0. 0. 0. 0. 0. 0. 0. 0. 0. 0. 0. 2.
      2. 2. 1. 1. 1. 1. 1. 1. 0. 0. 0. 0. 0. 0. 4. 4. 4. 47. 47. 47.
      201. 201. 201. 24. 24. 24. 0. 0. 0. 0. 0. 0. 195. 195. 195. 254.
      254. 254. 255. 255. 255. 98. 98. 98. 0. 0. 0. 0. 0. 0. 0. 0. 0. 1.
      1. 1. 0. 0. 0. 0. 0. 0. 0. 0. 0. 0. 0. 0. 0. 0. 0. 0. 0. 0. 0. 0.
      0. 29. 29. 29. 118. 118. 118. 21. 21. 21. 0. 0. 0. 1. 1. 1. 95.
      95. 95. 234. 234. 234. 255. 255. 255. 173. 173. 173. 15. 15. 15.
      1. 1. 1. 0. 0. 0. 0. 0. 0. 3. 3. 3. 0. 0. 0. 3. 3. 3. 0. 0. 0. 0.
      0. 0. 5. 5. 5. 0. 0. 0. 2. 2. 2. 0. 0. 0. 1. 1. 1. 0. 0. 0. 0. 0.
      0. 2. 2. 2. 173. 173. 173. 254. 254. 254. 220. 220. 220. 45. 45.
      45. 0. 0. 0. 0. 0. 0. 4. 4. 4. 0. 0. 0. 0. 0. 0. 0. 0. 0. 3. 3. 3.
      2. 2. 2. 0. 0. 0. 0. 0. 0. 1. 1. 1. 1. 1. 1. 19. 19. 19. 0. 0. 0.
      28. 28. 28. 78. 78. 78. 187. 187. 187. 254. 254. 254. 234. 234.
      234. 166. 166. 166. 85. 85. 85. 82. 82. 82. 32. 32. 32. 3. 3. 3.
      1. 1. 1. 2. 2. 2. 1. 1. 1. 0. 0. 0. 0. 0. 0. 0. 0. 0. 0. 0. 0. 35.
      35. 35. 195. 195. 195. 180. 180. 180. 213. 213. 213. 255. 255.
      255. 252. 252. 252. 255. 255. 255. 254. 254. 254. 253. 253. 253.
      254. 254. 254. 255. 255. 255. 203. 203. 203. 26. 26. 26. 0. 0. 0.
      2. 2. 2. 0. 0. 0. 2. 2. 2. 1. 1. 1. 0. 0. 0. 1. 1. 1. 61. 61. 61.
      218. 218. 218. 236. 236. 236. 229. 229. 229. 228. 228. 228. 227.
      227. 227. 223. 223. 223. 226. 226. 226. 226. 226. 226. 226. 226.
      226. 226. 226. 226. 241. 241. 241. 123. 123. 123. 0. 0. 0. 2. 2.
      2. 0. 0. 0. 1. 1. 1. 0. 0. 0. 2. 2. 2. 0. 0. 0. 2. 2. 2. 41. 41.
      41. 49. 49. 49. 49. 49. 49. 49. 49. 49. 49. 49. 49. 49. 49. 49.
      49. 49. 49. 49. 49. 49. 49. 49. 49. 50. 50. 50. 52. 52. 52. 30.
      30. 30. 3. 3. 3. 0. 0. 0. 0. 0. 0. 2. 2. 2. 0. 0. 0. 0. 0. 0. 2.
      2. 2. 0. 0. 0. 3. 3. 3. 0. 0. 0. 0. 0. 0. 0. 0. 0. 0. 0. 0. 0. 0.
      0. 0. 0. 0. 0. 0. 0. 0. 0. 0. 0. 0. 0. 2. 2. 2. 0. 0. 0. 0. 0. 0.
      0. 0. 0. 0. 0. 0. 2. 2. 2. 1. 1. 1. 0. 0. 0. 3. 3. 3. 1. 1. 1. 0.
      0. 0. 0. 0. 0. 0. 0. 0. 0. 0. 0. 0. 0. 0. 0. 0. 0. 0. 0. 0. 0. 0.
      0. 0. 0. 0. 2. 2. 2. 2. 2. 2. 0. 0. 0. 1. 1. 1. 2. 2. 2. 0. 0. 0.
      0. 0. 0. 3. 3. 3. 0. 0. 0. 0. 0. 0. 1. 1. 1. 2. 2. 2. 0. 0. 0. 0.
      0. 0. 0. 0. 0. 0. 0. 0. 0. 0. 0. 0. 0. 0. 0. 0. 0. 0. 0. 0. 0. 0.
      0. 0. 0. 0. 0. 0. 0. 0. 0. 0.</_>
    <_>
      0. 0. 0. 0. 0. 0. 0. 0. 0. 0. 0. 0. 0. 0. 0. 0. 0. 0. 0. 0. 0. 0.
      0. 0. 1. 1. 1. 0. 0. 0. 0. 0. 0. 3. 3. 3. 0. 0. 0. 2. 2. 2. 0. 0.
      0. 1. 1. 1. 0. 0. 0. 0. 0. 0. 0. 0. 0. 0. 0. 0. 0. 0. 0. 0. 0. 0.
      0. 0. 0. 0. 0. 0. 0. 0. 0. 0. 0. 0. 0. 0. 0. 0. 0. 0. 3. 3. 3. 0.
      0. 0. 2. 2. 2. 0. 0. 0. 0. 0. 0. 0. 0. 0. 0. 0. 0. 1. 1. 1. 0. 0.
      0. 0. 0. 0. 0. 0. 0. 0. 0. 0. 0. 0. 0. 0. 0. 0. 0. 0. 0. 0. 0. 0.
      0. 0. 0. 0. 0. 0. 0. 0. 0. 0. 0. 0. 0. 0. 0. 3. 3. 3. 1. 1. 1. 0.
      0. 0. 0. 0. 0. 0. 0. 0. 4. 4. 4. 0. 0. 0. 0. 0. 0. 0. 0. 0. 0. 0.
      0. 0. 0. 0. 0. 0. 0. 0. 0. 0. 0. 0. 0. 0. 0. 0. 0. 0. 0. 0. 0. 0.
      0. 0. 0. 0. 0. 0. 0. 0. 0. 0. 0. 0. 0. 0. 0. 4. 4. 4. 0. 0. 0. 85.
      85. 85. 54. 54. 54. 0. 0. 0. 0. 0. 0. 0. 0. 0. 0. 0. 0. 0. 0. 0.
      0. 0. 0. 0. 0. 0. 0. 0. 0. 0. 0. 0. 0. 0. 0. 0. 0. 0. 0. 0. 0. 0.
      0. 0. 0. 0. 0. 3. 3. 3. 0. 0. 0. 0. 0. 0. 122. 122. 122. 205. 205.
      205. 52. 52. 52. 4. 4. 4. 0. 0. 0. 0. 0. 0. 0. 0. 0. 0. 0. 0. 0.
      0. 0. 0. 0. 0. 0. 0. 0. 0. 0. 0. 0. 0. 0. 0. 0. 0. 0. 0. 0. 0. 0.
      0. 0. 0. 0. 1. 1. 1. 3. 3. 3. 95. 95. 95. 231. 231. 231. 77. 77.
      77. 0. 0. 0. 0. 0. 0. 0. 0. 0. 0. 0. 0. 0. 0. 0. 0. 0. 0. 0. 0. 0.
      0. 0. 0. 0. 0. 0. 0. 0. 0. 0. 0. 0. 0. 0. 0. 0. 0. 0. 0. 0. 0. 1.
      1. 1. 0. 0. 0. 51. 51. 51. 229. 229. 229. 99. 99. 99. 0. 0. 0. 0.
      0. 0. 0. 0. 0. 0. 0. 0. 0. 0. 0. 0. 0. 0. 0. 0. 0. 0. 0. 0. 0. 0.
      0. 0. 0. 0. 0. 0. 0. 0. 0. 0. 0. 0. 0. 0. 0. 0. 0. 0. 0. 0. 0. 0.
      8. 8. 8. 183. 183. 183. 180. 180. 180. 5. 5. 5. 0. 0. 0. 1. 1. 1.
      0. 0. 0. 0. 0. 0. 0. 0. 0. 0. 0. 0. 0. 0. 0. 0. 0. 0. 0. 0. 0. 0.
      0. 0. 0. 0. 0. 0. 0. 0. 0. 0. 0. 0. 0. 0. 1. 1. 1. 2. 2. 2. 75.
      75. 75. 245. 245. 245. 68. 68. 68. 0. 0. 0. 3. 3. 3. 0. 0. 0. 0.
      0. 0. 0. 0. 0. 0. 0. 0. 0. 0. 0. 0. 0. 0. 0. 0. 0. 1. 1. 1. 0. 0.
      0. 0. 0. 0. 1. 1. 1. 1. 1. 1. 0. 0. 0. 0. 0. 0. 0. 0. 0. 160. 160.
      160. 168. 168. 168. 7. 7. 7. 0. 0. 0. 0. 0. 0. 0. 0. 0. 3. 3. 3.
      0. 0. 0. 0. 0. 0. 0. 0. 0. 0. 0. 0. 0. 0. 0. 1. 1. 1. 0. 0. 0. 0.
      0. 0. 0. 0. 0. 1. 1. 1. 0. 0. 0. 0. 0. 0. 49. 49. 49. 228. 228.
      228. 100. 100. 100. 0. 0. 0. 0. 0. 0. 4. 4. 4. 0. 0. 0. 0. 0. 0.
      0. 0. 0. 0. 0. 0. 0. 0. 0. 0. 0. 0. 0. 0. 0. 0. 0. 0. 0. 0. 0. 0.
      0. 0. 0. 0. 0. 0. 0. 0. 0. 0. 0. 5. 5. 5. 141. 141. 141. 197. 197.
      197. 14. 14. 14. 1. 1. 1. 2. 2. 2. 0. 0. 0. 1. 1. 1. 1. 1. 1. 0.
      0. 0. 0. 0. 0. 0. 0. 0. 0. 0. 0. 0. 0. 0. 0. 0. 0. 1. 1. 1. 0. 0.
      0. 0. 0. 0. 0. 0. 0. 2. 2. 2. 17. 17. 17. 225. 225. 225. 132. 132.
      132. 0. 0. 0. 0. 0. 0. 0. 0. 0. 0. 0. 0. 0. 0. 0. 0. 0. 0. 0. 0.
      0. 0. 0. 0. 0. 0. 0. 0. 0. 0. 1. 1. 1. 0. 0. 0. 1. 1. 1. 0. 0. 0.
      1. 1. 1. 0. 0. 0. 3. 3. 3. 24. 24. 24. 227. 227. 227. 104. 104.
      104. 2. 2. 2. 0. 0. 0. 3. 3. 3. 1. 1. 1. 0. 0. 0. 0. 0. 0. 0. 0.
      0. 0. 0. 0. 0. 0. 0. 0. 0. 0. 0. 0. 0. 0. 0. 0. 1. 1. 1. 0. 0. 0.
      1. 1. 1. 0. 0. 0. 1. 1. 1. 21. 21. 21. 218. 218. 218. 82. 82. 82.
      0. 0. 0. 3. 3. 3. 0. 0. 0. 3. 3. 3. 0. 0. 0. 0. 0. 0. 0. 0. 0. 0.
      0. 0. 0. 0. 0. 0. 0. 0. 1. 1. 1. 0. 0. 0. 1. 1. 1. 0. 0. 0. 1. 1.
      1. 0. 0. 0. 0. 0. 0. 15. 15. 15. 185. 185. 185. 83. 83. 83. 2. 2.
      2. 1. 1. 1. 0. 0. 0. 0. 0. 0. 3. 3. 3. 0. 0. 0. 0. 0. 0. 0. 0. 0.
      0. 0. 0. 0. 0. 0. 0. 0. 0. 0. 0. 0. 0. 0. 0. 0. 0. 0. 0. 0. 0. 0.
      0. 0. 1. 1. 1. 2. 2. 2. 174. 174. 174. 114. 114. 114. 0. 0. 0. 0.
      0. 0. 1. 1. 1. 0. 0. 0. 1. 1. 1. 0. 0. 0. 0. 0. 0. 0. 0. 0. 0. 0.
      0. 0. 0. 0. 0. 0. 0. 0. 0. 0. 0. 0. 0. 0. 0. 0. 0. 0. 0. 0. 0. 0.
      1. 1. 1. 1. 1. 1. 141. 141. 141. 92. 92. 92. 5. 5. 5. 0. 0. 0. 0.
      0. 0. 2. 2. 2. 1. 1. 1. 0. 0. 0. 0. 0. 0. 0. 0. 0. 0. 0. 0. 0. 0.
      0. 0. 0. 0. 0. 0. 0. 0. 0. 0. 0. 0. 0. 0. 0. 0. 0. 0. 0. 0. 0. 0.
      1. 1. 1. 3. 3. 3. 2. 2. 2. 0. 0. 0. 1. 1. 1. 0. 0. 0. 0. 0. 0. 0.
      0. 0. 4. 4. 4. 0. 0. 0. 0. 0. 0. 0. 0. 0. 0. 0. 0. 0. 0. 0. 0. 0.
      0. 0. 0. 0. 0. 0. 0. 0. 0. 0. 0. 0. 0. 0. 0. 0. 0. 0. 0. 1. 1. 1.
      0. 0. 0. 1. 1. 1. 0. 0. 0. 0. 0. 0. 3. 3. 3. 0. 0. 0. 0. 0. 0. 0.
      0. 0. 0. 0. 0. 0. 0. 0. 0. 0. 0.</_>
    <_>
      1. 1. 1. 0. 0. 0. 0. 0. 0. 0. 0. 0. 1. 1. 1. 1. 1. 1. 0. 0. 0. 0.
      0. 0. 0. 0. 0. 2. 2. 2. 2. 2. 2. 0. 0. 0. 0. 0. 0. 3. 3. 3. 0. 0.
      0. 2. 2. 2. 0. 0. 0. 0. 0. 0. 0. 0. 0. 0. 0. 0. 0. 0. 0. 0. 0. 0.
      0. 0. 0. 0. 0. 0. 0. 0. 0. 0. 0. 0. 0. 0. 0. 1. 1. 1. 3. 3. 3. 0.
      0. 0. 0. 0. 0. 2. 2. 2. 1. 1. 1. 0. 0. 0. 2. 2. 2. 0. 0. 0. 0. 0.
      0. 0. 0. 0. 0. 0. 0. 0. 0. 0. 0. 0. 0. 0. 0. 0. 0. 0. 0. 1. 1. 1.
      2. 2. 2. 1. 1. 1. 0. 0. 0. 1. 1. 1. 0. 0. 0. 1. 1. 1. 36. 36. 36.
      183. 183. 183. 77. 77. 77. 3. 3. 3. 3. 3. 3. 0. 0. 0. 0. 0. 0. 0.
      0. 0. 0. 0. 0. 0. 0. 0. 1. 1. 1. 0. 0. 0. 0. 0. 0. 0. 0. 0. 0. 0.
      0. 0. 0. 0. 0. 0. 0. 0. 0. 0. 0. 0. 0. 0. 0. 0. 68. 68. 68. 255.
      255. 255. 212. 212. 212. 0. 0. 0. 1. 1. 1. 3. 3. 3. 0. 0. 0. 0. 0.
      0. 0. 0. 0. 0. 0. 0. 0. 0. 0. 1. 1. 1. 1. 1. 1. 0. 0. 0. 0. 0. 0.
      0. 0. 0. 1. 1. 1. 2. 2. 2. 0. 0. 0. 0. 0. 0. 99. 99. 99. 255. 255.
      255. 176. 176. 176. 1. 1. 1. 0. 0. 0. 0. 0. 0. 0. 0. 0. 0. 0. 0.
      0. 0. 0. 0. 0. 0. 0. 0. 0. 0. 0. 0. 0. 0. 0. 0. 0. 0. 2. 2. 2. 2.
      2. 2. 0. 0. 0. 0. 0. 0. 3. 3. 3. 31. 31. 31. 199. 199. 199. 255.
      255. 255. 99. 99. 99. 0. 0. 0. 0. 0. 0. 2. 2. 2. 0. 0. 0. 0. 0. 0.
      0. 0. 0. 0. 0. 0. 2. 2. 2. 0. 0. 0. 0. 0. 0. 0. 0. 0. 0. 0. 0. 0.
      0. 0. 0. 0. 0. 1. 1. 1. 11. 11. 11. 172. 172. 172. 254. 254. 254.
      254. 254. 254. 95. 95. 95. 0. 0. 0. 3. 3. 3. 0. 0. 0. 0. 0. 0. 0.
      0. 0. 0. 0. 0. 0. 0. 0. 0. 0. 0. 0. 0. 0. 0. 0. 0. 1. 1. 1. 0. 0.
      0. 0. 0. 0. 15. 15. 15. 34. 34. 34. 169. 169. 169. 245. 245. 245.
      209. 209. 209. 253. 253. 253. 100. 100. 100. 0. 0. 0. 0. 0. 0. 1.
      1. 1. 0. 0. 0. 0. 0. 0. 0. 0. 0. 0. 0. 0. 0. 0. 0. 0. 0. 0. 3. 3.
      3. 0. 0. 0. 23. 23. 23. 142. 142. 142. 195. 195. 195. 246. 246.
      246. 202. 202. 202. 78. 78. 78. 89. 89. 89. 253. 253. 253. 96. 96.
      96. 3. 3. 3. 0. 0. 0. 0. 0. 0. 0. 0. 0. 0. 0. 0. 0. 0. 0. 0. 0. 0.
      3. 3. 3. 0. 0. 0. 0. 0. 0. 0. 0. 0. 11. 11. 11. 79. 79. 79. 113.
      113. 113. 82. 82. 82. 20. 20. 20. 3. 3. 3. 91. 91. 91. 255. 255.
      255. 108. 108. 108. 0. 0. 0. 4. 4. 4. 0. 0. 0. 0. 0. 0. 0. 0. 0.
      0. 0. 0. 0. 0. 0. 0. 0. 0. 0. 0. 0. 0. 0. 0. 0. 0. 0. 2. 2. 2. 0.
      0. 0. 0. 0. 0. 1. 1. 1. 0. 0. 0. 0. 0. 0. 70. 70. 70. 254. 254.
      254. 147. 147. 147. 6. 6. 6. 0. 0. 0. 1. 1. 1. 0. 0. 0. 0. 0. 0.
      0. 0. 0. 0. 0. 0. 0. 0. 0. 0. 0. 0. 2. 2. 2. 1. 1. 1. 0. 0. 0. 3.
      3. 3. 5. 5. 5. 0. 0. 0. 0. 0. 0. 0. 0. 0. 52. 52. 52. 246. 246.
      246. 102. 102. 102. 0. 0. 0. 0. 0. 0. 0. 0. 0. 0. 0. 0. 0. 0. 0.
      0. 0. 0. 0. 0. 0. 2. 2. 2. 1. 1. 1. 0. 0. 0. 0. 0. 0. 0. 0. 0. 1.
      1. 1. 0. 0. 0. 3. 3. 3. 3. 3. 3. 0. 0. 0. 35. 35. 35. 230. 230.
      230. 79. 79. 79. 1. 1. 1. 11. 11. 11. 8. 8. 8. 0. 0. 0. 0. 0. 0.
      0. 0. 0. 0. 0. 0. 0. 0. 0. 0. 0. 0. 3. 3. 3. 0. 0. 0. 0. 0. 0. 3.
      3. 3. 32. 32. 32. 120. 120. 120. 142. 142. 142. 137. 137. 137.
      129. 129. 129. 209. 209. 209. 168. 168. 168. 114. 114. 114. 190.
      190. 190. 83. 83. 83. 0. 0. 0. 0. 0. 0. 0. 0. 0. 0. 0. 0. 5. 5. 5.
      0. 0. 0. 0. 0. 0. 0. 0. 0. 18. 18. 18. 138. 138. 138. 228. 228.
      228. 253. 253. 253. 248. 248. 248. 237. 237. 237. 196. 196. 196.
      167. 167. 167. 174. 174. 174. 170. 170. 170. 167. 167. 167. 56.
      56. 56. 0. 0. 0. 0. 0. 0. 0. 0. 0. 0. 0. 0. 0. 0. 0. 1. 1. 1. 0.
      0. 0. 1. 1. 1. 71. 71. 71. 254. 254. 254. 235. 235. 235. 135. 135.
      135. 34. 34. 34. 6. 6. 6. 0. 0. 0. 3. 3. 3. 0. 0. 0. 1. 1. 1. 3.
      3. 3. 0. 0. 0. 0. 0. 0. 0. 0. 0. 0. 0. 0. 0. 0. 0. 0. 0. 0. 1. 1.
      1. 1. 1. 1. 0. 0. 0. 12. 12. 12. 82. 82. 82. 52. 52. 52. 0. 0. 0.
      0. 0. 0. 0. 0. 0. 0. 0. 0. 0. 0. 0. 0. 0. 0. 0. 0. 0. 0. 0. 0. 0.
      0. 0. 0. 0. 0. 0. 0. 0. 0. 0. 0. 0. 0. 0. 3. 3. 3. 0. 0. 0. 0. 0.
      0. 1. 1. 1. 0. 0. 0. 3. 3. 3. 0. 0. 0. 0. 0. 0. 0. 0. 0. 0. 0. 0.
      0. 0. 0. 0. 0. 0. 0. 0. 0. 0. 0. 0. 0. 0. 0. 0. 0. 0. 0. 0. 0. 0.
      0. 0. 0. 0. 0. 0. 0. 0. 0. 0. 0. 1. 1. 1. 1. 1. 1. 0. 0. 0. 2. 2.
      2. 0. 0. 0. 0. 0. 0. 2. 2. 2. 0. 0. 0. 0. 0. 0. 0. 0. 0. 0. 0. 0.
      0. 0. 0. 0. 0. 0. 0. 0. 0. 0. 0. 0. 0. 0. 0. 0. 0. 0. 0. 0. 0. 0.
      0. 0. 0. 0. 0. 4. 4. 4. 0. 0. 0. 0. 0. 0. 1. 1. 1. 1. 1. 1. 0. 0.
      0. 0. 0. 0. 0. 0. 0. 0. 0. 0. 0. 0. 0. 0. 0. 0. 0. 0. 0. 0. 0. 0.
      0. 0. 0. 0. 0. 0. 0. 0. 0. 0. 0. 0. 0. 0. 0. 0. 0. 0.</_>
    <_>
      1. 1. 1. 0. 0. 0. 0. 0. 0. 0. 0. 0. 0. 0. 0. 0. 0. 0. 0. 0. 0. 1.
      1. 1. 0. 0. 0. 0. 0. 0. 3. 3. 3. 0. 0. 0. 0. 0. 0. 1. 1. 1. 1. 1.
      1. 0. 0. 0. 0. 0. 0. 0. 0. 0. 0. 0. 0. 0. 0. 0. 0. 0. 0. 0. 0. 0.
      1. 1. 1. 1. 1. 1. 1. 1. 1. 0. 0. 0. 0. 0. 0. 0. 0. 0. 0. 0. 0. 0.
      0. 0. 0. 0. 0. 0. 0. 0. 4. 4. 4. 0. 0. 0. 0. 0. 0. 1. 1. 1. 0. 0.
      0. 0. 0. 0. 0. 0. 0. 0. 0. 0. 0. 0. 0. 0. 0. 0. 1. 1. 1. 0. 0. 0.
      0. 0. 0. 0. 0. 0. 0. 0. 0. 0. 0. 0. 0. 0. 0. 2. 2. 2. 2. 2. 2. 0.
      0. 0. 0. 0. 0. 3. 3. 3. 0. 0. 0. 0. 0. 0. 0. 0. 0. 0. 0. 0. 0. 0.
      0. 0. 0. 0. 0. 0. 0. 1. 1. 1. 0. 0. 0. 0. 0. 0. 0. 0. 0. 0. 0. 0.
      1. 1. 1. 1. 1. 1. 1. 1. 1. 15. 15. 15. 83. 83. 83. 33. 33. 33. 0.
      0. 0. 0. 0. 0. 0. 0. 0. 1. 1. 1. 0. 0. 0. 0. 0. 0. 0. 0. 0. 0. 0.
      0. 1. 1. 1. 1. 1. 1. 0. 0. 0. 0. 0. 0. 0. 0. 0. 1. 1. 1. 1. 1. 1.
      0. 0. 0. 19. 19. 19. 167. 167. 167. 254. 254. 254. 192. 192. 192.
      25. 25. 25. 0. 0. 0. 3. 3. 3. 0. 0. 0. 0. 0. 0. 0. 0. 0. 0. 0. 0.
      0. 0. 0. 0. 0. 0. 0. 0. 0. 0. 0. 0. 1. 1. 1. 1. 1. 1. 0. 0. 0. 0.
      0. 0. 0. 0. 0. 80. 80. 80. 246. 246. 246. 222. 222. 222. 203. 203.
      203. 43. 43. 43. 0. 0. 0. 1. 1. 1. 1. 1. 1. 0. 0. 0. 0. 0. 0. 0.
      0. 0. 0. 0. 0. 0. 0. 0. 0. 0. 0. 0. 0. 0. 1. 1. 1. 0. 0. 0. 0. 0.
      0. 0. 0. 0. 3. 3. 3. 130. 130. 130. 253. 253. 253. 96. 96. 96. 1.
      1. 1. 2. 2. 2. 1. 1. 1. 0. 0. 0. 0. 0. 0. 0. 0. 0. 0. 0. 0. 0. 0.
      0. 0. 0. 0. 1. 1. 1. 0. 0. 0. 0. 0. 0. 1. 1. 1. 0. 0. 0. 0. 0. 0.
      3. 3. 3. 10. 10. 10. 187. 187. 187. 248. 248. 248. 35. 35. 35. 0.
      0. 0. 0. 0. 0. 0. 0. 0. 1. 1. 1. 1. 1. 1. 0. 0. 0. 0. 0. 0. 0. 0.
      0. 0. 0. 0. 0. 0. 0. 0. 0. 0. 2. 2. 2. 0. 0. 0. 0. 0. 0. 0. 0. 0.
      1. 1. 1. 21. 21. 21. 215. 215. 215. 237. 237. 237. 7. 7. 7. 1. 1.
      1. 0. 0. 0. 2. 2. 2. 0. 0. 0. 0. 0. 0. 0. 0. 0. 0. 0. 0. 0. 0. 0.
      0. 0. 0. 1. 1. 1. 0. 0. 0. 1. 1. 1. 0. 0. 0. 0. 0. 0. 0. 0. 0. 0.
      0. 0. 21. 21. 21. 211. 211. 211. 238. 238. 238. 9. 9. 9. 0. 0. 0.
      0. 0. 0. 0. 0. 0. 2. 2. 2. 1. 1. 1. 0. 0. 0. 0. 0. 0. 0. 0. 0. 0.
      0. 0. 1. 1. 1. 0. 0. 0. 0. 0. 0. 0. 0. 0. 1. 1. 1. 0. 0. 0. 2. 2.
      2. 22. 22. 22. 212. 212. 212. 241. 241. 241. 4. 4. 4. 4. 4. 4. 3.
      3. 3. 0. 0. 0. 1. 1. 1. 0. 0. 0. 0. 0. 0. 0. 0. 0. 0. 0. 0. 0. 0.
      0. 0. 0. 0. 0. 0. 0. 0. 0. 0. 0. 0. 0. 1. 1. 1. 0. 0. 0. 2. 2. 2.
      16. 16. 16. 214. 214. 214. 240. 240. 240. 8. 8. 8. 0. 0. 0. 0. 0.
      0. 2. 2. 2. 0. 0. 0. 2. 2. 2. 0. 0. 0. 0. 0. 0. 0. 0. 0. 0. 0. 0.
      0. 0. 0. 1. 1. 1. 0. 0. 0. 0. 0. 0. 0. 0. 0. 0. 0. 0. 0. 0. 0. 4.
      4. 4. 146. 146. 146. 244. 244. 244. 50. 50. 50. 1. 1. 1. 1. 1. 1.
      0. 0. 0. 0. 0. 0. 0. 0. 0. 0. 0. 0. 0. 0. 0. 0. 0. 0. 0. 0. 0. 0.
      0. 0. 1. 1. 1. 0. 0. 0. 0. 0. 0. 0. 0. 0. 1. 1. 1. 0. 0. 0. 0. 0.
      0. 61. 61. 61. 245. 245. 245. 194. 194. 194. 7. 7. 7. 0. 0. 0. 1.
      1. 1. 1. 1. 1. 1. 1. 1. 0. 0. 0. 0. 0. 0. 0. 0. 0. 0. 0. 0. 0. 0.
      0. 0. 0. 0. 0. 0. 0. 0. 0. 0. 1. 1. 1. 1. 1. 1. 1. 1. 1. 0. 0. 0.
      10. 10. 10. 185. 185. 185. 255. 255. 255. 98. 98. 98. 1. 1. 1. 1.
      1. 1. 0. 0. 0. 0. 0. 0. 0. 0. 0. 0. 0. 0. 0. 0. 0. 0. 0. 0. 1. 1.
      1. 0. 0. 0. 0. 0. 0. 0. 0. 0. 0. 0. 0. 0. 0. 0. 0. 0. 0. 0. 0. 0.
      0. 0. 0. 41. 41. 41. 239. 239. 239. 247. 247. 247. 92. 92. 92. 1.
      1. 1. 0. 0. 0. 1. 1. 1. 0. 0. 0. 0. 0. 0. 0. 0. 0. 0. 0. 0. 0. 0.
      0. 0. 0. 0. 0. 0. 0. 0. 0. 0. 0. 0. 0. 0. 0. 0. 0. 0. 0. 0. 0. 0.
      1. 1. 1. 0. 0. 0. 75. 75. 75. 212. 212. 212. 225. 225. 225. 15.
      15. 15. 2. 2. 2. 0. 0. 0. 0. 0. 0. 0. 0. 0. 0. 0. 0. 0. 0. 0. 0.
      0. 0. 0. 0. 0. 0. 0. 0. 0. 0. 0. 0. 0. 0. 0. 0. 0. 0. 0. 0. 0. 0.
      0. 0. 0. 0. 1. 1. 1. 0. 0. 0. 40. 40. 40. 173. 173. 173. 18. 18.
      18. 0. 0. 0. 1. 1. 1. 0. 0. 0. 0. 0. 0. 0. 0. 0. 0. 0. 0. 0. 0. 0.
      0. 0. 0. 0. 0. 0. 0. 0. 0. 0. 0. 0. 0. 0. 0. 0. 0. 0. 0. 0. 0. 1.
      1. 1. 2. 2. 2. 1. 1. 1. 0. 0. 0. 0. 0. 0. 0. 0. 0. 1. 1. 1. 0. 0.
      0. 0. 0. 0. 0. 0. 0. 0. 0. 0. 0. 0. 0. 0. 0. 0. 0. 0. 0. 0. 0. 0.
      0. 0. 0. 0. 0. 0. 0. 0. 0. 0. 0. 0. 0. 0. 0. 0. 0. 0. 0. 0. 0. 2.
      2. 2. 3. 3. 3. 3. 3. 3. 0. 0. 0. 0. 0. 0. 3. 3. 3. 0. 0. 0. 0. 0.
      0. 0. 0. 0. 0. 0. 0.</_>
    <_>
      0. 0. 0. 0. 0. 0. 0. 0. 0. 1. 1. 1. 0. 0. 0. 2. 2. 2. 0. 0. 0. 0.
      0. 0. 0. 0. 0. 1. 1. 1. 3. 3. 3. 0. 0. 0. 1. 1. 1. 2. 2. 2. 0. 0.
      0. 1. 1. 1. 0. 0. 0. 0. 0. 0. 0. 0. 0. 0. 0. 0. 0. 0. 0. 4. 4. 4.
      0. 0. 0. 0. 0. 0. 2. 2. 2. 0. 0. 0. 0. 0. 0. 2. 2. 2. 1. 1. 1. 0.
      0. 0. 0. 0. 0. 4. 4. 4. 0. 0. 0. 0. 0. 0. 1. 1. 1. 0. 0. 0. 0. 0.
      0. 0. 0. 0. 0. 0. 0. 0. 0. 0. 1. 1. 1. 0. 0. 0. 4. 4. 4. 0. 0. 0.
      0. 0. 0. 2. 2. 2. 0. 0. 0. 0. 0. 0. 0. 0. 0. 2. 2. 2. 0. 0. 0. 1.
      1. 1. 1. 1. 1. 0. 0. 0. 4. 4. 4. 0. 0. 0. 0. 0. 0. 0. 0. 0. 0. 0.
      0. 0. 0. 0. 0. 0. 0. 2. 2. 2. 0. 0. 0. 1. 1. 1. 0. 0. 0. 0. 0. 0.
      1. 1. 1. 0. 0. 0. 3. 3. 3. 39. 39. 39. 77. 77. 77. 53. 53. 53. 2.
      2. 2. 2. 2. 2. 0. 0. 0. 0. 0. 0. 0. 0. 0. 0. 0. 0. 0. 0. 0. 0. 0.
      0. 0. 0. 0. 4. 4. 4. 0. 0. 0. 0. 0. 0. 2. 2. 2. 2. 2. 2. 0. 0. 0.
      93. 93. 93. 187. 187. 187. 220. 220. 220. 243. 243. 243. 228. 228.
      228. 113. 113. 113. 1. 1. 1. 1. 1. 1. 2. 2. 2. 0. 0. 0. 0. 0. 0.
      0. 0. 0. 0. 0. 0. 0. 0. 0. 0. 0. 0. 1. 1. 1. 0. 0. 0. 2. 2. 2. 0.
      0. 0. 30. 30. 30. 228. 228. 228. 255. 255. 255. 170. 170. 170. 70.
      70. 70. 97. 97. 97. 189. 189. 189. 75. 75. 75. 0. 0. 0. 0. 0. 0.
      0. 0. 0. 0. 0. 0. 0. 0. 0. 0. 0. 0. 0. 0. 0. 2. 2. 2. 0. 0. 0. 2.
      2. 2. 0. 0. 0. 2. 2. 2. 129. 129. 129. 234. 234. 234. 76. 76. 76.
      0. 0. 0. 0. 0. 0. 3. 3. 3. 54. 54. 54. 169. 169. 169. 19. 19. 19.
      0. 0. 0. 0. 0. 0. 0. 0. 0. 0. 0. 0. 0. 0. 0. 2. 2. 2. 0. 0. 0. 2.
      2. 2. 0. 0. 0. 0. 0. 0. 42. 42. 42. 234. 234. 234. 154. 154. 154.
      0. 0. 0. 3. 3. 3. 0. 0. 0. 0. 0. 0. 3. 3. 3. 137. 137. 137. 77.
      77. 77. 0. 0. 0. 0. 0. 0. 0. 0. 0. 0. 0. 0. 0. 0. 0. 3. 3. 3. 0.
      0. 0. 0. 0. 0. 1. 1. 1. 1. 1. 1. 97. 97. 97. 242. 242. 242. 42.
      42. 42. 0. 0. 0. 1. 1. 1. 0. 0. 0. 0. 0. 0. 0. 0. 0. 74. 74. 74.
      136. 136. 136. 2. 2. 2. 1. 1. 1. 0. 0. 0. 3. 3. 3. 0. 0. 0. 0. 0.
      0. 4. 4. 4. 4. 4. 4. 0. 0. 0. 0. 0. 0. 123. 123. 123. 201. 201.
      201. 13. 13. 13. 0. 0. 0. 0. 0. 0. 0. 0. 0. 3. 3. 3. 0. 0. 0. 0.
      0. 0. 150. 150. 150. 45. 45. 45. 0. 0. 0. 0. 0. 0. 0. 0. 0. 0. 0.
      0. 0. 0. 0. 0. 0. 0. 0. 0. 0. 0. 0. 0. 0. 0. 0. 170. 170. 170.
      105. 105. 105. 1. 1. 1. 1. 1. 1. 0. 0. 0. 3. 3. 3. 0. 0. 0. 0. 0.
      0. 3. 3. 3. 101. 101. 101. 95. 95. 95. 0. 0. 0. 3. 3. 3. 0. 0. 0.
      0. 0. 0. 2. 2. 2. 2. 2. 2. 0. 0. 0. 2. 2. 2. 7. 7. 7. 165. 165.
      165. 63. 63. 63. 1. 1. 1. 1. 1. 1. 0. 0. 0. 1. 1. 1. 0. 0. 0. 1.
      1. 1. 0. 0. 0. 36. 36. 36. 148. 148. 148. 1. 1. 1. 0. 0. 0. 1. 1.
      1. 2. 2. 2. 0. 0. 0. 1. 1. 1. 0. 0. 0. 1. 1. 1. 10. 10. 10. 162.
      162. 162. 58. 58. 58. 0. 0. 0. 0. 0. 0. 3. 3. 3. 0. 0. 0. 0. 0. 0.
      0. 0. 0. 2. 2. 2. 9. 9. 9. 182. 182. 182. 34. 34. 34. 0. 0. 0. 1.
      1. 1. 0. 0. 0. 2. 2. 2. 0. 0. 0. 0. 0. 0. 3. 3. 3. 17. 17. 17.
      187. 187. 187. 24. 24. 24. 2. 2. 2. 1. 1. 1. 0. 0. 0. 0. 0. 0. 1.
      1. 1. 3. 3. 3. 0. 0. 0. 10. 10. 10. 187. 187. 187. 52. 52. 52. 3.
      3. 3. 0. 0. 0. 0. 0. 0. 0. 0. 0. 0. 0. 0. 2. 2. 2. 0. 0. 0. 14.
      14. 14. 159. 159. 159. 31. 31. 31. 0. 0. 0. 1. 1. 1. 1. 1. 1. 0.
      0. 0. 0. 0. 0. 2. 2. 2. 0. 0. 0. 30. 30. 30. 190. 190. 190. 20.
      20. 20. 0. 0. 0. 0. 0. 0. 2. 2. 2. 0. 0. 0. 0. 0. 0. 0. 0. 0. 2.
      2. 2. 0. 0. 0. 140. 140. 140. 111. 111. 111. 0. 0. 0. 0. 0. 0. 1.
      1. 1. 1. 1. 1. 0. 0. 0. 0. 0. 0. 14. 14. 14. 174. 174. 174. 137.
      137. 137. 0. 0. 0. 2. 2. 2. 1. 1. 1. 0. 0. 0. 0. 0. 0. 0. 0. 0. 2.
      2. 2. 0. 0. 0. 2. 2. 2. 23. 23. 23. 125. 125. 125. 128. 128. 128.
      33. 33. 33. 28. 28. 28. 26. 26. 26. 31. 31. 31. 89. 89. 89. 188.
      188. 188. 153. 153. 153. 24. 24. 24. 0. 0. 0. 0. 0. 0. 0. 0. 0. 0.
      0. 0. 1. 1. 1. 1. 1. 1. 0. 0. 0. 1. 1. 1. 0. 0. 0. 1. 1. 1. 5. 5.
      5. 81. 81. 81. 122. 122. 122. 157. 157. 157. 190. 190. 190. 133.
      133. 133. 89. 89. 89. 69. 69. 69. 1. 1. 1. 0. 0. 0. 0. 0. 0. 0. 0.
      0. 0. 0. 0. 0. 0. 0. 3. 3. 3. 0. 0. 0. 0. 0. 0. 1. 1. 1. 0. 0. 0.
      0. 0. 0. 5. 5. 5. 0. 0. 0. 0. 0. 0. 0. 0. 0. 0. 0. 0. 5. 5. 5. 0.
      0. 0. 0. 0. 0. 1. 1. 1. 1. 1. 1. 0. 0. 0. 0. 0. 0. 0. 0. 0. 0. 0.
      0. 0. 0. 0. 0. 0. 0. 4. 4. 4. 2. 2. 2. 1. 1. 1. 0. 0. 0. 0. 0. 0.
      0. 0. 0. 0. 0. 0. 3. 3. 3. 0. 0. 0. 0. 0. 0. 0. 0. 0. 1. 1. 1. 0.
      0. 0. 3. 3. 3. 0. 0. 0. 0. 0. 0. 0. 0. 0. 0. 0. 0.</_>
    <_>
      0. 0. 0. 0. 0. 0. 0. 0. 0. 0. 0. 0. 0. 0. 0. 0. 0. 0. 0. 0. 0. 0.
      0. 0. 1. 1. 1. 0. 0. 0. 0. 0. 0. 2. 2. 2. 0. 0. 0. 1. 1. 1. 1. 1.
      1. 0. 0. 0. 1. 1. 1. 1. 1. 1. 0. 0. 0. 0. 0. 0. 0. 0. 0. 0. 0. 0.
      0. 0. 0. 0. 0. 0. 0. 0. 0. 0. 0. 0. 0. 0. 0. 0. 0. 0. 0. 0. 0. 2.
      2. 2. 0. 0. 0. 0. 0. 0. 1. 1. 1. 0. 0. 0. 0. 0. 0. 2. 2. 2. 0. 0.
      0. 0. 0. 0. 2. 2. 2. 0. 0. 0. 0. 0. 0. 0. 0. 0. 0. 0. 0. 0. 0. 0.
      0. 0. 0. 1. 1. 1. 1. 1. 1. 0. 0. 0. 0. 0. 0. 1. 1. 1. 0. 0. 0. 0.
      0. 0. 0. 0. 0. 4. 4. 4. 1. 1. 1. 0. 0. 0. 4. 4. 4. 0. 0. 0. 1. 1.
      1. 1. 1. 1. 0. 0. 0. 0. 0. 0. 0. 0. 0. 0. 0. 0. 0. 0. 0. 1. 1. 1.
      0. 0. 0. 0. 0. 0. 0. 0. 0. 2. 2. 2. 0. 0. 0. 2. 2. 2. 49. 49. 49.
      72. 72. 72. 104. 104. 104. 39. 39. 39. 0. 0. 0. 0. 0. 0. 0. 0. 0.
      2. 2. 2. 0. 0. 0. 0. 0. 0. 0. 0. 0. 0. 0. 0. 0. 0. 0. 0. 0. 0. 0.
      0. 0. 0. 0. 0. 0. 0. 0. 0. 0. 0. 59. 59. 59. 163. 163. 163. 219.
      219. 219. 245. 245. 245. 255. 255. 255. 177. 177. 177. 3. 3. 3. 3.
      3. 3. 0. 0. 0. 0. 0. 0. 0. 0. 0. 0. 0. 0. 0. 0. 0. 0. 0. 0. 0. 0.
      0. 0. 0. 0. 0. 0. 0. 0. 0. 0. 2. 2. 2. 133. 133. 133. 237. 237.
      237. 147. 147. 147. 153. 153. 153. 255. 255. 255. 206. 206. 206.
      205. 205. 205. 56. 56. 56. 1. 1. 1. 0. 0. 0. 1. 1. 1. 0. 0. 0. 0.
      0. 0. 0. 0. 0. 0. 0. 0. 0. 0. 0. 0. 0. 0. 1. 1. 1. 2. 2. 2. 96.
      96. 96. 220. 220. 220. 65. 65. 65. 122. 122. 122. 255. 255. 255.
      133. 133. 133. 18. 18. 18. 200. 200. 200. 90. 90. 90. 0. 0. 0. 0.
      0. 0. 3. 3. 3. 0. 0. 0. 0. 0. 0. 0. 0. 0. 0. 0. 0. 0. 0. 0. 0. 0.
      0. 2. 2. 2. 4. 4. 4. 157. 157. 157. 77. 77. 77. 99. 99. 99. 243.
      243. 243. 134. 134. 134. 0. 0. 0. 22. 22. 22. 220. 220. 220. 70.
      70. 70. 1. 1. 1. 1. 1. 1. 0. 0. 0. 0. 0. 0. 2. 2. 2. 0. 0. 0. 0.
      0. 0. 1. 1. 1. 1. 1. 1. 0. 0. 0. 0. 0. 0. 27. 27. 27. 110. 110.
      110. 233. 233. 233. 125. 125. 125. 0. 0. 0. 1. 1. 1. 78. 78. 78.
      166. 166. 166. 2. 2. 2. 1. 1. 1. 1. 1. 1. 0. 0. 0. 2. 2. 2. 0. 0.
      0. 0. 0. 0. 1. 1. 1. 0. 0. 0. 0. 0. 0. 0. 0. 0. 1. 1. 1. 31. 31.
      31. 219. 219. 219. 163. 163. 163. 0. 0. 0. 3. 3. 3. 7. 7. 7. 179.
      179. 179. 91. 91. 91. 1. 1. 1. 1. 1. 1. 0. 0. 0. 0. 0. 0. 0. 0. 0.
      2. 2. 2. 0. 0. 0. 3. 3. 3. 0. 0. 0. 2. 2. 2. 0. 0. 0. 18. 18. 18.
      215. 215. 215. 207. 207. 207. 6. 6. 6. 1. 1. 1. 0. 0. 0. 99. 99.
      99. 212. 212. 212. 9. 9. 9. 0. 0. 0. 0. 0. 0. 0. 0. 0. 0. 0. 0. 0.
      0. 0. 1. 1. 1. 1. 1. 1. 0. 0. 0. 0. 0. 0. 1. 1. 1. 2. 2. 2. 134.
      134. 134. 247. 247. 247. 83. 83. 83. 1. 1. 1. 0. 0. 0. 3. 3. 3.
      174. 174. 174. 174. 174. 174. 0. 0. 0. 0. 0. 0. 0. 0. 0. 0. 0. 0.
      0. 0. 0. 1. 1. 1. 0. 0. 0. 2. 2. 2. 4. 4. 4. 0. 0. 0. 0. 0. 0. 87.
      87. 87. 246. 246. 246. 108. 108. 108. 2. 2. 2. 0. 0. 0. 1. 1. 1.
      36. 36. 36. 243. 243. 243. 87. 87. 87. 2. 2. 2. 0. 0. 0. 0. 0. 0.
      0. 0. 0. 0. 0. 0. 0. 0. 0. 5. 5. 5. 0. 0. 0. 0. 0. 0. 2. 2. 2. 63.
      63. 63. 236. 236. 236. 135. 135. 135. 0. 0. 0. 1. 1. 1. 0. 0. 0.
      50. 50. 50. 183. 183. 183. 127. 127. 127. 3. 3. 3. 0. 0. 0. 0. 0.
      0. 0. 0. 0. 0. 0. 0. 0. 0. 0. 3. 3. 3. 0. 0. 0. 1. 1. 1. 2. 2. 2.
      11. 11. 11. 230. 230. 230. 161. 161. 161. 0. 0. 0. 0. 0. 0. 0. 0.
      0. 51. 51. 51. 229. 229. 229. 183. 183. 183. 8. 8. 8. 1. 1. 1. 0.
      0. 0. 0. 0. 0. 0. 0. 0. 0. 0. 0. 0. 0. 0. 0. 0. 0. 0. 0. 0. 2. 2.
      2. 2. 2. 2. 142. 142. 142. 206. 206. 206. 21. 21. 21. 0. 0. 0. 14.
      14. 14. 128. 128. 128. 225. 225. 225. 162. 162. 162. 13. 13. 13.
      0. 0. 0. 0. 0. 0. 3. 3. 3. 0. 0. 0. 0. 0. 0. 0. 0. 0. 0. 0. 0. 1.
      1. 1. 0. 0. 0. 0. 0. 0. 48. 48. 48. 232. 232. 232. 132. 132. 132.
      49. 49. 49. 102. 102. 102. 201. 201. 201. 244. 244. 244. 133. 133.
      133. 10. 10. 10. 0. 0. 0. 0. 0. 0. 1. 1. 1. 0. 0. 0. 0. 0. 0. 0.
      0. 0. 0. 0. 0. 0. 0. 0. 0. 0. 0. 0. 0. 0. 0. 0. 0. 103. 103. 103.
      227. 227. 227. 200. 200. 200. 198. 198. 198. 217. 217. 217. 186.
      186. 186. 51. 51. 51. 0. 0. 0. 0. 0. 0. 0. 0. 0. 1. 1. 1. 0. 0. 0.
      2. 2. 2. 0. 0. 0. 0. 0. 0. 0. 0. 0. 0. 0. 0. 2. 2. 2. 1. 1. 1. 5.
      5. 5. 2. 2. 2. 0. 0. 0. 2. 2. 2. 0. 0. 0. 0. 0. 0. 0. 0. 0. 0. 0.
      0. 2. 2. 2. 0. 0. 0. 3. 3. 3. 1. 1. 1. 0. 0. 0. 1. 1. 1. 0. 0. 0.
      0. 0. 0. 0. 0. 0. 0. 0. 0. 1. 1. 1. 0. 0. 0. 0. 0. 0. 0. 0. 0. 0.
      0. 0. 0. 0. 0. 1. 1. 1. 1. 1. 1. 1. 1. 1. 0. 0. 0. 0. 0. 0. 0. 0.
      0. 1. 1. 1. 0. 0. 0. 0. 0. 0. 1. 1. 1. 0. 0. 0. 0. 0. 0. 0. 0. 0.
      0. 0. 0.</_>
    <_>
